w_t _weights_conv4[3*3*5*5] = {
-3.996476e-02,
4.709939e-02,
1.259292e-01,
2.281607e-02,
-2.094226e-01,
-2.513093e-01,
-1.895287e-01,
-2.034559e-01,
8.710422e-02,
-7.665917e-02,
-4.750029e-02,
5.973977e-02,
-3.290984e-02,
1.220767e-01,
7.681662e-04,
1.172467e-01,
4.220097e-02,
9.145136e-02,
-3.389017e-02,
-8.200182e-02,
5.484276e-02,
1.355521e-01,
1.785323e-01,
5.855015e-02,
2.320396e-01,
-4.153407e-02,
-2.700601e-01,
-1.196725e-01,
-4.550822e-02,
1.202814e-01,
-8.444443e-02,
2.991295e-03,
3.295506e-02,
1.826816e-01,
-3.372498e-02,
1.636889e-01,
2.382826e-02,
-9.253717e-02,
8.265312e-02,
-1.566283e-01,
-7.351644e-02,
-9.640193e-02,
-3.207376e-02,
1.140688e-01,
4.958519e-02,
-9.367179e-02,
8.840828e-02,
1.263982e-01,
-6.127247e-02,
-1.741720e-01,
-1.934526e-01,
2.984850e-01,
4.880497e-02,
4.300430e-02,
1.238244e-01,
-1.092121e-03,
2.597156e-03,
1.277702e-01,
-8.301005e-02,
2.282387e-02,
-1.246257e-01,
-1.415885e-01,
-2.415329e-02,
-5.977390e-02,
9.379518e-02,
2.495302e-01,
-2.351120e-01,
2.099536e-02,
6.359629e-02,
-1.629467e-01,
-7.319558e-02,
-1.155937e-01,
1.217521e-01,
3.027800e-02,
1.706744e-01,
1.272961e-01,
-6.578103e-02,
1.631921e-01,
-2.424596e-01,
-3.615424e-02,
3.025442e-02,
-3.158439e-02,
9.474275e-02,
4.270125e-02,
-1.256858e-01,
-1.005082e-02,
5.515531e-02,
-3.005264e-03,
2.643928e-03,
-1.898954e-01,
1.649293e-01,
3.173609e-01,
2.244080e-01,
1.478401e-02,
2.137439e-01,
-3.752271e-02,
-2.176181e-02,
-1.590268e-02,
1.220567e-01,
-6.300482e-02,
-5.710152e-02,
-1.086065e-01,
1.423399e-01,
-7.996422e-02,
1.464706e-02,
6.913207e-02,
-1.029548e-01,
-8.828295e-02,
1.650574e-02,
1.135520e-01,
2.886850e-01,
-1.243908e-01,
-9.261045e-02,
6.677750e-02,
-1.437533e-01,
7.985292e-02,
-3.174797e-03,
-4.397076e-02,
-2.266391e-01,
-1.598611e-01,
2.706003e-02,
-2.731455e-01,
1.630501e-01,
-1.491479e-01,
-1.167233e-01,
1.046867e-01,
2.620441e-01,
-1.162582e-01,
-9.181477e-02,
2.791368e-02,
-1.907584e-01,
-1.281523e-02,
5.773682e-02,
-1.117943e-01,
1.478546e-02,
2.190993e-02,
2.236615e-01,
2.378261e-01,
3.258522e-01,
4.007342e-02,
-8.331977e-02,
2.097464e-01,
-1.168555e-01,
-1.849771e-01,
5.291855e-02,
-8.152682e-02,
2.507938e-02,
-1.135587e-01,
1.367901e-01,
9.625378e-02,
-1.947528e-02,
-1.445736e-01,
-1.175208e-01,
-6.944611e-02,
2.703137e-02,
2.106622e-03,
1.572774e-01,
-9.593795e-02,
-1.417820e-02,
-8.345873e-02,
-7.334805e-02,
1.494862e-01,
-1.125564e-01,
-1.356324e-01,
8.211154e-02,
1.653991e-01,
-1.360350e-01,
-1.476250e-01,
7.501072e-02,
5.297455e-02,
-3.345480e-02,
9.653833e-02,
5.000291e-02,
-3.308419e-02,
1.078641e-01,
5.953711e-02,
6.844797e-02,
1.548642e-01,
1.254144e-01,
7.751290e-02,
2.314440e-01,
1.619768e-01,
1.041102e-01,
2.348181e-01,
-8.724988e-03,
9.010553e-02,
3.042760e-01,
8.849462e-02,
2.222921e-01,
-1.163423e-01,
2.306584e-02,
-1.340491e-02,
-9.575735e-02,
-9.160339e-02,
-9.067591e-02,
6.185357e-02,
-1.070795e-01,
-1.927589e-02,
-3.418256e-02,
-4.136768e-02,
-1.879479e-01,
-2.318214e-01,
-2.458923e-01,
1.464384e-01,
-1.426604e-01,
-5.586741e-03,
1.398519e-01,
-6.381323e-03,
-9.433486e-03,
-5.561267e-02,
1.570535e-01,
-1.270632e-01,
-1.111889e-01,
-5.930500e-02,
-2.509834e-01,
-2.127637e-01,
5.711951e-02,
2.274212e-01,
1.211484e-01,
-1.209368e-01,
-6.311720e-02,
1.043256e-03,
-5.809877e-03,
-2.270554e-02,
-1.230175e-01,
};
