w_t _weights_ip[12*12*5*10] = {
-1.919546e-02,
-2.240801e-02,
6.003300e-03,
-5.294380e-02,
-8.784954e-02,
7.242172e-03,
2.534446e-02,
4.868928e-02,
-6.572108e-02,
1.431123e-02,
3.437442e-02,
5.079017e-03,
-2.600956e-03,
-4.526474e-02,
-5.609069e-02,
-2.030876e-02,
-4.643043e-02,
-2.078638e-02,
-1.960728e-02,
3.496765e-02,
7.407327e-02,
3.507386e-03,
6.060633e-02,
-8.253857e-02,
-1.617070e-02,
-6.509788e-02,
-6.329191e-02,
-2.805723e-02,
-2.879012e-02,
1.273547e-02,
8.864366e-02,
4.959716e-02,
1.157151e-01,
1.054269e-01,
1.248767e-01,
3.875963e-02,
1.748727e-02,
-6.850540e-02,
-3.973476e-02,
-2.199615e-02,
6.049141e-02,
6.426015e-02,
5.501579e-02,
1.186352e-01,
1.507448e-01,
1.174205e-01,
1.456706e-01,
2.696534e-02,
-6.142416e-03,
-1.407679e-02,
1.237018e-02,
-4.085144e-02,
7.981708e-02,
-4.298575e-04,
2.779458e-03,
6.391593e-02,
3.270153e-02,
8.085921e-02,
1.246750e-01,
7.316113e-02,
-3.233460e-02,
-2.585562e-02,
7.966796e-02,
1.618574e-03,
8.789972e-02,
1.095137e-01,
-4.760754e-02,
9.869605e-03,
4.948801e-02,
4.916262e-02,
1.066243e-01,
1.409724e-01,
-9.707926e-02,
-2.171120e-02,
2.887044e-02,
7.204272e-02,
7.518075e-02,
4.088854e-02,
-2.973845e-02,
-6.129642e-02,
3.058379e-02,
-9.248055e-03,
2.653933e-02,
5.691237e-02,
-8.150332e-02,
4.856234e-03,
4.776186e-02,
3.896777e-02,
5.117382e-02,
-3.435631e-02,
-9.173903e-02,
-6.777520e-02,
-5.164262e-02,
-1.398427e-02,
7.723167e-03,
-5.940075e-03,
-6.203524e-02,
1.233758e-02,
5.327024e-03,
2.117627e-02,
8.356502e-02,
3.796832e-02,
-1.037018e-01,
-7.649522e-02,
-5.434150e-02,
-1.719869e-02,
1.699438e-03,
-7.040560e-02,
-2.575956e-02,
1.147421e-02,
2.041232e-02,
4.023785e-03,
1.219561e-01,
9.097660e-02,
-3.864696e-02,
-7.247935e-02,
-1.337279e-01,
-8.941668e-02,
-4.916230e-02,
-1.318573e-01,
8.801783e-03,
-4.528086e-02,
-1.091098e-02,
1.205176e-01,
4.133155e-02,
1.030882e-02,
-7.535122e-02,
-4.751427e-02,
-1.084500e-01,
-8.037800e-02,
-3.459333e-02,
-7.593263e-02,
-3.168989e-02,
-6.309215e-02,
-6.888314e-02,
-2.399329e-02,
-4.356692e-02,
-8.164600e-02,
-1.413788e-01,
-2.019396e-01,
-1.535193e-01,
-9.506773e-02,
-7.366443e-03,
-4.744875e-02,
-4.577383e-02,
-2.944222e-02,
5.238940e-03,
-3.746502e-02,
-3.306045e-03,
-5.673150e-02,
2.294226e-02,
-9.695703e-02,
-1.286124e-01,
-5.295456e-02,
-4.856935e-02,
-2.599795e-02,
-9.830428e-03,
-1.776491e-02,
-5.471264e-03,
7.983400e-04,
-5.380042e-02,
-5.838040e-02,
-1.319573e-02,
-5.029002e-02,
-4.006637e-02,
-2.805072e-03,
-4.877694e-02,
-8.402145e-03,
-1.150321e-02,
-7.810859e-02,
-5.118127e-03,
-7.433535e-02,
1.385311e-02,
-1.369377e-02,
-3.174191e-02,
1.064416e-02,
2.266966e-02,
1.459968e-02,
1.515372e-02,
1.986792e-02,
-2.687811e-02,
8.712535e-03,
-3.997115e-02,
3.236207e-02,
-2.479546e-02,
1.420844e-02,
4.125988e-02,
4.224278e-03,
1.144711e-02,
3.328862e-02,
1.542880e-02,
1.903422e-02,
-8.244016e-03,
-1.376263e-02,
9.437057e-02,
8.681291e-02,
1.960150e-02,
1.669466e-02,
1.471900e-03,
-7.973620e-02,
-6.155251e-02,
-8.845417e-03,
2.696018e-02,
6.487016e-02,
-8.421384e-03,
-8.321917e-03,
1.018743e-01,
1.049994e-01,
8.767939e-02,
4.507735e-02,
-5.537187e-02,
-1.587556e-01,
-4.671488e-02,
5.400877e-03,
-4.905498e-03,
3.210256e-02,
1.396551e-02,
2.979162e-02,
4.015641e-02,
9.075505e-02,
8.046981e-02,
1.865558e-03,
-1.420437e-01,
-1.062164e-01,
-2.903470e-02,
7.026114e-02,
3.339654e-02,
5.954061e-02,
1.029385e-02,
1.524602e-02,
4.738068e-02,
5.088596e-02,
4.045615e-02,
-1.148608e-02,
-9.260695e-02,
-3.052870e-03,
-1.902212e-02,
8.849534e-04,
1.479936e-02,
6.784518e-02,
-6.151190e-03,
7.807345e-03,
-7.527850e-05,
7.992768e-02,
3.840049e-02,
1.828218e-02,
-3.203289e-02,
1.815544e-02,
3.574442e-02,
1.796081e-02,
2.203612e-02,
3.644710e-02,
-6.877431e-02,
-7.539639e-02,
-3.751872e-02,
2.595853e-02,
-5.398950e-03,
3.191309e-02,
1.778835e-02,
2.322351e-02,
-2.699309e-02,
-1.206009e-03,
-4.180705e-04,
-1.207186e-02,
-2.328089e-02,
-4.523377e-02,
-2.381852e-02,
-1.962633e-02,
4.847416e-03,
-1.769340e-02,
-1.075430e-02,
1.191623e-02,
-5.395996e-03,
-3.815078e-02,
-2.082160e-04,
-3.069128e-02,
-3.829399e-02,
-2.916943e-02,
-2.553422e-02,
-2.428238e-02,
-6.145232e-02,
-8.091230e-02,
-7.290441e-02,
-7.197521e-02,
-7.888968e-02,
-5.054811e-02,
-1.681217e-02,
-2.284973e-02,
-7.043070e-02,
-8.808100e-03,
-7.321652e-02,
-6.908027e-02,
-5.376521e-03,
4.778985e-02,
-5.752572e-02,
-4.315448e-02,
-8.382156e-02,
-5.130127e-02,
-7.230299e-02,
-8.663865e-03,
-9.370977e-02,
-5.852168e-02,
-2.570728e-02,
1.948541e-02,
-1.068796e-02,
4.212768e-02,
-6.428996e-02,
2.914672e-03,
-1.360006e-02,
-3.603499e-03,
-3.368807e-02,
-1.429766e-02,
-8.104090e-02,
-4.402864e-02,
8.618829e-03,
-2.965499e-02,
-3.194240e-02,
-3.053024e-02,
-1.056552e-02,
5.789916e-02,
-3.397279e-02,
-4.571877e-03,
3.588527e-02,
-5.908287e-02,
-4.851456e-02,
2.204345e-02,
-5.538867e-03,
-5.247307e-03,
2.666829e-02,
-4.330907e-02,
1.737253e-02,
3.264557e-02,
6.749474e-02,
2.720582e-02,
-5.418483e-03,
7.274297e-02,
-3.595191e-02,
1.908639e-02,
-1.404605e-03,
-2.599164e-03,
-2.762743e-02,
-4.400108e-02,
-8.247998e-02,
-1.440390e-02,
-6.648730e-02,
-2.537367e-02,
-8.843400e-03,
-2.332925e-02,
2.534019e-03,
2.112206e-02,
2.755398e-03,
-1.502647e-03,
-3.315699e-02,
-1.335543e-01,
-1.651788e-01,
-1.476474e-01,
-4.864553e-02,
-5.512574e-03,
1.438768e-02,
3.516837e-03,
1.220199e-02,
-6.123403e-02,
-2.983847e-02,
-6.898672e-03,
-2.484664e-02,
-1.193919e-01,
-1.226191e-01,
-1.262019e-01,
-4.879547e-02,
-2.273947e-02,
-3.726529e-02,
-1.377521e-02,
1.167277e-02,
-1.803556e-02,
-7.476047e-02,
-3.345870e-02,
-9.229001e-02,
-1.227100e-01,
-7.455284e-02,
-7.943020e-02,
-4.628504e-02,
-2.448347e-02,
-8.317046e-02,
-8.816021e-02,
-5.667701e-02,
-8.368614e-03,
-3.784533e-02,
6.662526e-04,
-5.070972e-02,
-7.541221e-02,
-1.789346e-02,
-3.243869e-02,
-6.258083e-02,
-9.059925e-02,
-1.023557e-01,
-4.666066e-02,
1.780156e-02,
-1.265051e-02,
-2.454704e-02,
-1.696072e-02,
4.614799e-02,
3.570092e-03,
2.958732e-02,
-3.175458e-02,
4.107164e-03,
-8.178861e-02,
-8.155259e-02,
-8.521441e-02,
-9.257711e-02,
4.177703e-03,
-2.467025e-02,
2.965966e-02,
-3.798116e-02,
7.375477e-02,
1.387805e-02,
-4.096125e-02,
-1.004855e-01,
-1.875846e-02,
-9.249320e-02,
-1.506833e-02,
-4.537049e-03,
-6.564877e-02,
-3.645409e-04,
7.210021e-02,
5.823576e-02,
7.114908e-02,
-1.410430e-02,
-7.327387e-02,
-1.132136e-01,
-1.170338e-01,
-1.022307e-01,
-2.245002e-02,
5.549220e-02,
6.553733e-03,
3.477534e-02,
4.781508e-02,
5.185846e-02,
5.021737e-02,
8.661134e-02,
1.238998e-01,
8.423474e-02,
5.292697e-02,
4.865506e-02,
3.543987e-02,
1.253091e-02,
3.876201e-02,
1.604358e-02,
-3.207872e-02,
1.906977e-02,
-2.068843e-02,
2.385314e-02,
5.086142e-02,
1.172643e-02,
-2.431100e-02,
-5.276216e-02,
2.447813e-02,
5.226940e-02,
-3.040594e-02,
-7.817486e-03,
-5.991523e-02,
-1.270190e-01,
-6.479620e-03,
1.400164e-02,
1.358326e-02,
1.452884e-02,
-2.669737e-02,
-9.683695e-02,
-1.022531e-01,
3.797285e-02,
-1.146381e-02,
-4.498164e-02,
-6.918560e-02,
-3.368057e-02,
-2.254420e-02,
-5.897528e-02,
-2.042362e-02,
-1.093743e-01,
1.258438e-03,
1.320331e-02,
-8.002947e-02,
6.420072e-02,
3.837051e-02,
-1.062531e-01,
-1.125930e-02,
-2.828756e-02,
-7.930521e-02,
-1.051529e-02,
3.491701e-02,
-1.252959e-01,
-9.419029e-02,
-9.566396e-02,
-1.250374e-01,
1.952883e-02,
-8.345298e-02,
-1.638566e-01,
-9.226751e-02,
-1.838245e-01,
-6.967969e-02,
5.750527e-02,
4.493846e-02,
-8.865120e-02,
2.558612e-02,
-1.499438e-01,
-2.268891e-01,
-2.334923e-02,
-2.985050e-02,
-1.113131e-01,
-9.645008e-02,
-1.513707e-01,
-7.152115e-02,
6.623089e-02,
-2.539615e-02,
-4.682389e-02,
1.532415e-02,
-1.182545e-01,
-1.267210e-01,
-5.400072e-03,
-7.751846e-02,
-1.314311e-01,
-1.081285e-01,
-1.885816e-01,
-2.422472e-02,
-4.194251e-02,
-2.479576e-02,
-6.925465e-03,
6.588945e-02,
-5.469368e-03,
-5.069093e-02,
1.058572e-02,
-7.193188e-02,
-7.398514e-02,
-6.516106e-02,
-2.318892e-02,
-5.633016e-02,
-1.351238e-02,
5.599374e-02,
4.157306e-04,
4.260951e-02,
6.389494e-02,
1.006506e-02,
1.209426e-02,
-2.097186e-02,
-8.696103e-02,
-3.406689e-02,
2.429007e-02,
3.897451e-02,
1.400981e-02,
2.351614e-02,
1.769224e-02,
4.202447e-02,
9.359407e-03,
3.921691e-04,
1.396021e-02,
3.453906e-02,
-3.238099e-02,
1.048055e-03,
5.193385e-02,
1.096713e-02,
4.693643e-02,
3.977671e-03,
3.675080e-02,
3.261421e-02,
-5.016599e-03,
7.591730e-04,
-1.488979e-02,
6.833392e-02,
6.352611e-02,
7.121917e-02,
6.827428e-02,
7.106794e-02,
4.608164e-02,
4.770730e-02,
4.993483e-02,
3.688421e-02,
2.440753e-02,
-3.267390e-02,
-1.800156e-03,
-7.060564e-02,
-8.291554e-02,
-1.508595e-02,
-1.318976e-02,
-1.788011e-02,
-1.746009e-02,
-6.858599e-02,
-2.309153e-02,
-5.753870e-02,
-3.306274e-02,
1.886740e-02,
-5.775019e-02,
-1.047601e-01,
4.450214e-02,
-3.476471e-02,
-4.384036e-02,
4.896630e-02,
3.067551e-02,
-2.933034e-02,
6.924948e-04,
-3.546146e-02,
2.402687e-02,
-8.165681e-02,
-5.510218e-02,
-4.213535e-02,
-8.081236e-03,
-1.866756e-02,
-3.195566e-03,
-3.253026e-02,
3.814084e-02,
3.276623e-02,
9.957936e-03,
2.973048e-03,
-4.200369e-02,
-7.568682e-02,
-4.494410e-03,
-1.606613e-02,
1.515779e-02,
-1.947886e-02,
-4.357179e-03,
1.491165e-02,
-5.959815e-02,
-1.409999e-02,
-5.695863e-02,
7.676177e-03,
-4.366405e-02,
7.623091e-03,
-5.042919e-03,
-1.648757e-02,
3.552150e-02,
4.942214e-02,
-1.626957e-04,
4.197107e-03,
-8.773883e-02,
-2.456578e-02,
-4.779326e-02,
3.960012e-03,
-1.483630e-02,
9.937767e-03,
-6.007558e-02,
4.629537e-02,
1.038170e-01,
7.824123e-02,
6.652462e-02,
-6.047781e-02,
-1.871013e-01,
-1.047431e-01,
-8.404105e-02,
-3.941431e-02,
1.167784e-02,
1.787558e-02,
-3.147108e-02,
4.789204e-02,
7.364000e-02,
8.322795e-02,
-8.229498e-03,
-9.678508e-02,
-1.694103e-01,
-3.851963e-02,
-1.155598e-02,
-1.798875e-02,
-3.897379e-02,
4.584685e-02,
-2.041077e-02,
-3.685891e-03,
-5.083646e-02,
-1.693163e-02,
3.158924e-02,
-1.446729e-01,
-3.395672e-02,
5.010440e-02,
3.907203e-03,
1.225591e-02,
1.499833e-02,
-9.112597e-02,
-3.063778e-02,
-4.070072e-03,
-1.932875e-02,
-7.668272e-02,
-3.648601e-02,
4.961981e-02,
3.899362e-02,
6.695522e-02,
2.487643e-02,
3.946746e-02,
3.850767e-02,
-2.955033e-02,
-9.592741e-03,
-7.445616e-02,
-9.940666e-02,
-2.136774e-02,
-1.857293e-02,
1.612893e-02,
6.180101e-02,
4.358472e-02,
-5.835593e-04,
-7.930199e-04,
1.288252e-02,
-1.687683e-02,
-3.771145e-04,
-3.958378e-02,
4.520610e-03,
-3.570874e-02,
-4.371861e-02,
8.917150e-03,
3.388406e-02,
4.301701e-02,
3.783265e-02,
-2.673052e-02,
-7.221278e-02,
-4.657716e-02,
-7.001192e-03,
5.172757e-03,
-1.205042e-01,
-1.847197e-01,
-1.189741e-01,
-8.648098e-02,
-8.299497e-02,
-1.744417e-01,
-1.589289e-01,
-5.187326e-02,
-7.834652e-02,
-3.220477e-02,
-6.408773e-02,
2.103583e-03,
-9.415725e-02,
2.223751e-02,
-3.147150e-02,
4.575707e-02,
5.229711e-02,
1.111537e-02,
2.060391e-02,
-2.220728e-02,
8.238244e-03,
-7.110138e-02,
-1.921592e-02,
4.230786e-02,
1.766166e-03,
2.642857e-02,
2.560559e-02,
2.082714e-02,
2.497877e-02,
-1.427728e-02,
1.766975e-02,
1.780864e-02,
-7.178141e-04,
-1.196301e-01,
-2.983703e-02,
-7.195805e-03,
1.146614e-02,
-5.356335e-02,
-2.645194e-02,
-5.149287e-02,
-1.080924e-02,
-1.000327e-01,
-7.428373e-02,
-6.306238e-02,
-6.234146e-02,
-1.564345e-01,
-8.865241e-02,
-4.146535e-02,
5.466164e-02,
-7.155046e-02,
-1.146828e-01,
-1.091980e-01,
2.103200e-02,
-2.769894e-02,
-2.612217e-02,
-5.971064e-02,
-2.828970e-02,
-1.404683e-01,
-7.857279e-02,
-6.457312e-02,
-5.697413e-02,
-7.958366e-02,
-1.016607e-01,
-8.970779e-02,
1.593379e-02,
1.660870e-02,
-3.183921e-02,
-8.841879e-02,
-9.516175e-02,
-9.825820e-02,
-3.333283e-02,
-4.957204e-02,
-4.338869e-02,
-3.560123e-02,
-1.819820e-01,
-5.177671e-02,
2.973085e-02,
-1.201721e-02,
-7.968231e-02,
-6.145985e-02,
-8.919708e-02,
-9.258679e-02,
-7.253475e-02,
-5.560146e-02,
-7.458046e-02,
-4.203272e-02,
-1.464243e-01,
-2.181929e-02,
7.521419e-03,
-2.716614e-02,
-8.336030e-02,
-3.236188e-02,
-4.807269e-02,
-7.438570e-03,
-7.481333e-02,
-1.122762e-01,
-8.508665e-02,
-6.271366e-02,
-8.867276e-02,
-6.196503e-02,
7.801289e-02,
-6.022993e-02,
-5.250728e-02,
-9.663720e-02,
1.443734e-02,
-7.597656e-03,
-1.638758e-02,
-1.544390e-01,
-5.179945e-02,
-5.771862e-02,
-8.202686e-02,
-1.884646e-02,
-3.923454e-03,
-1.106934e-01,
-1.390234e-02,
-3.272133e-02,
4.034194e-02,
4.148460e-02,
2.578463e-02,
-5.408052e-02,
-8.111587e-02,
-3.938629e-02,
-5.018730e-02,
-4.919627e-02,
-5.807646e-02,
2.064333e-03,
1.198485e-01,
1.034062e-01,
-1.912938e-02,
6.793371e-02,
-7.154296e-02,
-4.020826e-03,
-2.786489e-02,
-3.203914e-02,
-5.434369e-02,
-2.142749e-02,
1.828654e-02,
1.494212e-02,
5.684575e-02,
6.024889e-02,
-6.262507e-02,
-3.386131e-02,
-4.361711e-02,
-2.082520e-02,
-8.873998e-02,
-2.809239e-02,
-6.285941e-02,
2.342225e-02,
-1.604804e-02,
-5.196938e-02,
2.763827e-02,
-1.077103e-02,
-9.361818e-02,
-7.873240e-02,
-7.502930e-02,
-5.376813e-02,
-6.403646e-02,
-6.884575e-02,
-4.428278e-02,
5.850318e-02,
7.104589e-02,
8.446656e-02,
3.138359e-02,
-5.426266e-02,
-4.543262e-02,
-6.619723e-02,
-3.390724e-02,
-6.442604e-02,
-9.368430e-02,
-1.021525e-01,
-6.473709e-02,
-7.074273e-02,
-5.712513e-03,
3.057964e-02,
2.846994e-02,
6.054908e-02,
-3.696912e-03,
-4.587801e-02,
-6.198235e-02,
-1.064549e-02,
-3.492872e-02,
-9.594193e-02,
-9.357332e-02,
-9.055696e-02,
-7.384325e-02,
-1.905278e-02,
2.401061e-02,
6.638598e-02,
3.058606e-02,
-6.029243e-02,
-4.056311e-02,
-2.022557e-02,
-6.137305e-02,
-4.116691e-02,
-7.092264e-02,
-4.395421e-02,
-3.349077e-02,
-6.354061e-03,
-3.060325e-02,
7.862461e-03,
-1.457611e-02,
-8.032712e-02,
-3.469941e-02,
-1.877247e-02,
2.407893e-02,
-1.009718e-02,
-8.532148e-02,
-7.130776e-02,
7.689384e-02,
1.485507e-02,
-1.261798e-02,
-2.716232e-02,
-2.411119e-02,
-1.064490e-01,
-9.901275e-02,
-2.686616e-02,
-2.098830e-02,
4.822625e-02,
-4.221105e-02,
-1.405829e-02,
6.355806e-03,
3.398878e-02,
-4.486993e-02,
-2.760144e-02,
-8.234328e-02,
-5.697845e-02,
-4.323446e-02,
3.353292e-03,
-6.982914e-02,
4.458487e-02,
-5.675720e-02,
-1.299700e-02,
-5.786042e-03,
7.357410e-02,
-7.500746e-02,
-4.666834e-02,
-4.714139e-02,
-7.070632e-02,
-7.234702e-02,
-6.700951e-02,
-4.562188e-02,
-7.612668e-02,
-1.137592e-01,
-6.202869e-02,
6.350564e-02,
-2.288308e-02,
-4.070875e-02,
-3.812829e-02,
-6.638177e-02,
-4.716946e-02,
-3.136295e-02,
-3.483239e-02,
-4.232505e-02,
-6.518647e-02,
-1.189364e-01,
-6.903639e-02,
-3.134031e-02,
-5.157838e-02,
-2.628953e-03,
2.845583e-02,
-1.902452e-02,
-1.506813e-03,
-2.262903e-02,
6.044677e-05,
1.000493e-01,
-4.288650e-02,
3.416136e-02,
-6.269785e-02,
-6.252055e-02,
-5.026342e-02,
-1.206209e-02,
-2.087640e-02,
3.072097e-02,
-5.456365e-02,
-4.672869e-02,
1.583774e-02,
4.382360e-02,
2.790591e-02,
-3.644773e-02,
-1.023247e-01,
-3.055366e-02,
-1.900439e-03,
-1.575645e-02,
6.682731e-04,
-3.475392e-02,
-7.922791e-02,
-3.035701e-02,
-2.239460e-02,
-1.079468e-01,
-3.235434e-02,
-6.340412e-02,
-5.881947e-02,
-8.362819e-02,
-3.719759e-02,
-3.609784e-02,
-6.654911e-02,
-6.899762e-02,
-8.424834e-02,
-5.616002e-02,
-4.863202e-02,
-9.210511e-02,
-8.374320e-02,
-2.685607e-02,
7.699298e-03,
4.308300e-02,
2.687732e-02,
3.085544e-02,
-2.902234e-02,
-6.031697e-02,
-7.161506e-02,
-5.362521e-02,
2.074990e-02,
-7.013889e-02,
-4.048359e-02,
-3.257825e-02,
-9.430736e-02,
-7.526708e-02,
-1.229447e-01,
-8.840469e-03,
-2.200702e-02,
-9.597297e-03,
-1.516754e-01,
-9.031042e-02,
3.997013e-02,
-6.813155e-02,
-3.035673e-02,
-5.009573e-02,
-1.517118e-01,
-1.416237e-01,
-9.679161e-02,
-4.503168e-02,
2.136136e-02,
-1.809063e-02,
-8.821743e-02,
-5.842905e-02,
-3.939468e-02,
-2.370258e-02,
-2.768068e-03,
-1.308102e-01,
-3.052642e-02,
-8.215152e-02,
-9.579723e-02,
-8.095209e-02,
-4.725333e-02,
-6.452990e-02,
-2.119207e-01,
-7.450823e-02,
-9.694332e-02,
-1.217627e-02,
2.230633e-02,
-7.027511e-02,
1.561681e-02,
-1.050415e-02,
-5.356738e-02,
7.112344e-03,
-1.142219e-01,
-1.440613e-01,
-8.637743e-02,
-7.900778e-02,
-5.119528e-02,
3.478846e-02,
-5.834230e-02,
-3.463713e-02,
-1.790483e-02,
2.260930e-03,
-1.170587e-01,
-1.124190e-01,
-1.379754e-01,
-1.059710e-01,
-7.534485e-02,
-6.365283e-02,
-9.347243e-02,
-8.800019e-03,
-6.625252e-02,
-1.521118e-01,
-9.877843e-02,
-1.189119e-01,
-1.078098e-01,
-1.770874e-01,
-5.633353e-02,
-1.981951e-02,
-6.300912e-02,
-1.427182e-01,
-7.445134e-02,
5.888815e-03,
-8.473583e-02,
-9.987772e-02,
-5.202053e-02,
-1.120417e-01,
-1.268441e-01,
-8.938410e-02,
-1.523031e-02,
5.903968e-03,
-3.908885e-02,
-1.165233e-01,
-8.487242e-02,
9.536646e-03,
-4.598024e-02,
-7.228100e-02,
-8.709151e-02,
-8.122210e-02,
-4.690302e-02,
8.881010e-03,
5.427118e-02,
3.164915e-02,
-4.457420e-02,
1.079836e-02,
-5.388107e-03,
8.620312e-02,
7.948477e-02,
6.732386e-02,
-2.214555e-03,
-6.144829e-02,
5.905041e-02,
5.989980e-02,
5.067796e-02,
2.634506e-02,
1.205751e-02,
6.242841e-02,
9.862601e-02,
5.417551e-02,
4.018219e-03,
-6.159462e-02,
-1.204835e-01,
-7.159717e-02,
-2.067813e-02,
-2.851487e-02,
5.162885e-02,
-6.616744e-02,
-3.733850e-02,
-6.791107e-02,
-9.564726e-02,
-2.600512e-02,
1.056918e-02,
-2.716837e-02,
-2.852257e-02,
-1.809983e-02,
9.508361e-02,
3.177261e-02,
6.884507e-02,
-3.234284e-03,
-9.288798e-02,
6.979604e-02,
1.143193e-01,
6.009264e-02,
6.771547e-02,
6.481717e-02,
5.667525e-02,
-8.050553e-03,
7.585116e-03,
1.523753e-01,
1.441614e-01,
8.375061e-02,
8.419543e-02,
1.002185e-01,
-1.558446e-02,
6.687202e-02,
5.441510e-02,
-1.577830e-02,
-2.689300e-02,
-6.854134e-02,
-2.854210e-05,
3.780603e-02,
2.723057e-02,
-2.858857e-02,
4.590261e-02,
7.300835e-02,
1.234589e-01,
7.907235e-02,
5.352297e-02,
-5.351734e-02,
-7.912762e-02,
-5.525491e-02,
-3.236972e-02,
-1.501753e-01,
-1.277554e-01,
-8.910094e-02,
9.661941e-03,
1.025280e-01,
6.237767e-02,
1.099465e-02,
-6.234591e-03,
-8.528376e-03,
-5.614270e-02,
-3.172172e-02,
-9.917298e-02,
-1.305171e-01,
9.725389e-05,
6.999678e-02,
1.597239e-02,
3.067739e-02,
8.419673e-02,
9.432004e-02,
8.736598e-02,
7.186446e-02,
-1.854731e-03,
-1.289790e-01,
-1.121816e-01,
-1.063083e-01,
-4.480105e-02,
1.336240e-02,
9.499618e-02,
5.959743e-02,
1.034833e-04,
1.862842e-02,
4.317466e-02,
6.801958e-02,
-4.660627e-03,
-1.946515e-01,
-1.295053e-01,
6.699451e-02,
8.945626e-02,
7.446545e-02,
1.083206e-01,
9.163919e-02,
8.552153e-02,
9.079795e-02,
9.190777e-02,
-3.442535e-02,
-1.353792e-01,
-1.397532e-01,
-4.067019e-02,
1.071788e-01,
1.113580e-01,
8.124621e-02,
1.181772e-01,
4.515069e-02,
7.057165e-02,
1.581037e-01,
2.930129e-02,
-6.806860e-02,
-4.282951e-02,
-4.125626e-02,
1.637110e-02,
-5.426411e-02,
-8.719850e-03,
6.868234e-02,
8.108022e-02,
5.798153e-02,
9.661433e-02,
1.231638e-01,
-1.662487e-02,
1.702793e-02,
2.484493e-02,
1.455593e-02,
-6.001456e-02,
-3.536759e-02,
5.501786e-02,
3.813045e-02,
6.637995e-02,
6.106509e-02,
1.444109e-02,
4.979698e-02,
4.533198e-02,
-1.230798e-02,
2.202207e-02,
-2.910913e-02,
-2.128667e-02,
7.183327e-02,
7.362501e-02,
9.566206e-02,
6.659790e-02,
9.912971e-02,
1.091755e-01,
8.504741e-02,
2.779691e-02,
-1.925230e-02,
-7.351237e-02,
-5.227672e-02,
8.081909e-02,
1.182650e-01,
1.152769e-01,
6.459292e-02,
1.360211e-01,
5.136689e-02,
1.035701e-01,
5.058228e-02,
4.333397e-02,
6.869198e-02,
6.775542e-02,
6.696643e-02,
6.814848e-02,
1.213576e-01,
1.128059e-01,
6.201784e-02,
5.615919e-02,
-2.549393e-02,
-6.897833e-02,
-4.708167e-02,
-7.130354e-02,
-3.729003e-02,
-1.924466e-02,
4.272939e-02,
1.491629e-02,
4.058399e-02,
3.594916e-02,
2.769424e-02,
-9.114719e-02,
-1.211828e-02,
4.322870e-02,
-1.637643e-02,
-8.390872e-02,
-2.235710e-02,
-1.074892e-02,
1.143612e-02,
-2.514656e-02,
9.929574e-03,
7.336820e-02,
1.368659e-02,
-6.728343e-02,
-5.192548e-02,
-5.618994e-02,
-4.022109e-02,
-8.673709e-02,
-8.452746e-02,
-4.037008e-02,
-5.419013e-02,
-5.305058e-02,
-2.187668e-02,
-6.280745e-03,
-3.627546e-03,
-1.341136e-01,
-8.345852e-02,
-5.381899e-02,
-5.792665e-02,
-5.062863e-02,
-7.245865e-02,
-4.701075e-02,
-1.412816e-02,
-1.261201e-02,
-7.069344e-02,
3.423933e-03,
-6.646669e-02,
-9.777170e-02,
-5.145964e-02,
-6.522014e-02,
-7.636279e-02,
-3.561556e-02,
-5.647241e-02,
-8.869545e-04,
-1.105137e-02,
-5.065807e-02,
-8.959478e-02,
-5.070743e-02,
-1.065810e-01,
-8.333473e-02,
-3.028880e-02,
-5.585778e-02,
-7.915855e-04,
8.390872e-02,
2.933288e-02,
-7.369789e-03,
3.171650e-02,
-1.161958e-01,
-1.876168e-01,
-1.145962e-01,
-8.043133e-02,
-9.145444e-02,
-3.113896e-02,
-5.391983e-02,
5.705243e-02,
7.159245e-03,
3.229954e-03,
-1.135964e-02,
-1.707223e-02,
-9.411955e-02,
-1.758190e-01,
-1.738456e-02,
-6.216612e-02,
-2.187166e-02,
-1.117761e-01,
-4.554526e-02,
1.808951e-02,
-1.416067e-02,
-9.282729e-02,
-8.997978e-02,
-1.031119e-01,
-1.610413e-01,
-4.437397e-02,
1.002330e-02,
2.099913e-02,
-4.583231e-02,
-1.287250e-01,
-3.328476e-02,
2.687917e-02,
-4.838869e-03,
-3.796113e-02,
-5.023233e-02,
-8.739151e-02,
-5.904108e-02,
2.896789e-02,
3.899279e-02,
-2.619659e-02,
2.923018e-02,
-1.663409e-02,
1.353531e-01,
9.364431e-02,
-1.886897e-02,
-2.868192e-02,
-1.245759e-01,
-6.890488e-02,
-1.625284e-02,
4.990947e-02,
-3.809620e-02,
4.358752e-02,
-3.590741e-02,
4.600537e-02,
4.200407e-02,
5.071478e-02,
1.812118e-02,
-6.669668e-02,
-1.434175e-01,
-1.529740e-01,
-1.168553e-01,
1.246805e-02,
-1.489196e-02,
-3.471294e-02,
-6.426288e-02,
-6.290513e-02,
-1.124613e-01,
1.120993e-02,
3.325731e-02,
-6.059468e-02,
-1.362939e-01,
-1.654297e-01,
-5.657891e-02,
1.113832e-02,
-1.030592e-01,
-8.366102e-02,
-4.898322e-02,
-1.672910e-02,
-2.127090e-03,
-3.516119e-02,
-3.878041e-04,
8.183312e-02,
-1.373863e-02,
1.023729e-02,
8.257989e-02,
-3.858056e-02,
-5.331906e-02,
-2.190519e-02,
-3.033593e-02,
1.600838e-02,
-6.356765e-02,
-8.110685e-02,
-5.951059e-02,
-1.301006e-02,
3.306422e-02,
1.408360e-02,
3.406797e-02,
1.589385e-02,
8.345339e-02,
4.950678e-02,
-1.438535e-02,
-1.236702e-04,
-2.536523e-02,
-7.276534e-02,
-8.276686e-03,
-6.980707e-03,
1.638300e-02,
3.235001e-02,
5.618379e-02,
6.602115e-02,
3.665242e-02,
9.198003e-02,
-5.354864e-02,
-2.913096e-02,
-1.574363e-02,
-1.070229e-01,
-7.988004e-02,
4.616916e-02,
-1.487191e-02,
3.790385e-02,
5.301806e-02,
1.770028e-02,
1.699328e-02,
2.692270e-02,
-7.538560e-02,
4.439726e-02,
1.122596e-02,
-8.389529e-02,
-6.130967e-02,
-7.540675e-02,
-8.100897e-02,
-4.215688e-02,
-6.066529e-03,
6.288332e-02,
3.591780e-02,
-1.531681e-02,
2.929056e-02,
-1.679783e-02,
-5.898857e-03,
-7.795029e-02,
-1.390399e-01,
-1.611844e-01,
-5.516085e-02,
-7.663634e-02,
-5.714194e-02,
-2.057269e-02,
-5.185612e-02,
-1.475568e-01,
-6.801245e-02,
1.702775e-02,
-7.280762e-02,
-8.951645e-02,
-1.531162e-01,
-8.809115e-02,
-3.004473e-02,
-4.777184e-02,
-7.011181e-02,
-1.249950e-01,
-1.594949e-01,
-2.530066e-01,
2.693943e-02,
7.515033e-02,
-9.252386e-03,
-1.075856e-02,
-3.613813e-02,
1.515076e-02,
-3.359322e-02,
-6.077713e-02,
-7.133053e-02,
-1.042595e-01,
-7.304380e-02,
-7.080708e-02,
5.402933e-02,
4.776154e-02,
3.513776e-03,
4.222304e-02,
2.683402e-02,
2.977210e-02,
-9.056047e-03,
-4.692897e-03,
1.749077e-02,
-2.277962e-02,
4.817551e-03,
-1.338514e-02,
1.537074e-02,
2.129089e-03,
7.625734e-03,
3.061348e-02,
7.137296e-02,
6.464574e-02,
-1.269886e-02,
-4.401518e-02,
4.052945e-02,
4.557591e-02,
7.391998e-02,
8.279283e-02,
9.730355e-02,
9.074925e-03,
6.101118e-03,
1.994119e-02,
2.472511e-02,
-2.215444e-02,
-6.367032e-02,
-3.127998e-02,
5.673654e-03,
5.121802e-02,
5.096107e-02,
3.680997e-02,
4.434794e-02,
-3.526611e-03,
-2.442742e-02,
1.047383e-02,
-1.508909e-01,
-1.310115e-01,
-6.856548e-02,
-4.274217e-02,
7.081494e-03,
1.909875e-02,
-5.754162e-02,
-2.182737e-02,
-4.180700e-02,
-1.100160e-02,
-1.156302e-02,
7.676656e-03,
-8.662733e-03,
-9.527140e-03,
-1.949516e-02,
-6.886601e-02,
-1.088864e-01,
-4.263161e-02,
-6.737792e-02,
-1.031808e-02,
-1.436730e-02,
2.035381e-02,
4.760178e-03,
1.854041e-03,
4.281558e-02,
-3.427996e-02,
-3.293226e-02,
-6.207472e-02,
-8.543428e-02,
-4.484178e-02,
-1.073430e-01,
-2.749944e-02,
-2.537573e-03,
-1.722647e-02,
8.172363e-02,
6.125453e-02,
5.293138e-02,
-1.614343e-02,
1.206351e-03,
-2.584298e-02,
1.214116e-02,
-2.907523e-02,
-4.450566e-02,
-2.937764e-02,
-1.351599e-02,
2.180855e-02,
2.466190e-02,
-2.680650e-02,
-1.676452e-02,
-5.137313e-02,
-6.519573e-02,
-6.448197e-02,
-2.729411e-02,
2.026531e-02,
1.293298e-02,
-2.259559e-02,
-1.977007e-02,
1.538267e-02,
-1.678817e-02,
-1.114234e-01,
-1.347662e-01,
-1.390002e-01,
-9.482801e-02,
-1.276861e-01,
-1.196370e-02,
3.253170e-03,
3.515662e-02,
-5.367700e-03,
-7.643519e-03,
6.962521e-03,
4.547727e-02,
-6.686049e-02,
-3.333692e-02,
-2.020235e-02,
-6.598146e-02,
-4.355985e-02,
-4.613044e-02,
-1.777895e-02,
5.620918e-02,
-1.364336e-02,
3.013003e-02,
1.073672e-02,
4.846820e-02,
1.222522e-01,
5.568472e-02,
1.588113e-02,
3.030401e-02,
6.129016e-02,
4.077545e-02,
-6.698478e-03,
5.446676e-03,
-3.175716e-02,
1.384331e-02,
3.032640e-02,
8.133416e-02,
6.793276e-02,
5.888619e-02,
1.224344e-01,
1.065589e-01,
1.145586e-01,
3.337427e-02,
-6.896273e-02,
-4.135361e-03,
1.185664e-02,
4.265449e-02,
5.583549e-02,
2.931850e-02,
4.448007e-02,
9.102616e-02,
8.644423e-02,
9.269634e-02,
3.125219e-02,
1.160336e-02,
-1.164605e-02,
-6.651762e-02,
-2.657241e-02,
1.764355e-02,
2.843851e-02,
7.396781e-02,
1.354944e-02,
1.208684e-02,
4.322984e-02,
3.005358e-02,
-3.603122e-03,
-4.908365e-02,
8.332402e-03,
-1.444297e-02,
-2.874570e-02,
1.647520e-02,
1.981708e-02,
-3.794922e-02,
-4.706024e-02,
1.019242e-03,
1.991563e-02,
-2.726112e-02,
-3.017660e-02,
-3.881828e-02,
4.554248e-02,
3.959800e-02,
-6.900451e-03,
1.813579e-02,
1.644335e-02,
-1.994993e-02,
2.781180e-03,
-6.854419e-02,
-7.645248e-02,
-8.457214e-02,
-6.374188e-02,
2.355044e-03,
2.944579e-02,
-3.521273e-02,
-1.237289e-02,
2.028611e-02,
-5.226026e-02,
-3.395564e-02,
3.904497e-02,
9.782175e-02,
7.808301e-02,
4.929523e-02,
1.731225e-04,
-5.396509e-03,
-5.811394e-02,
-3.034861e-02,
-4.332174e-02,
2.537693e-03,
-1.295508e-02,
-2.888197e-02,
-1.071934e-02,
1.408471e-02,
-1.101469e-02,
6.497474e-02,
6.338613e-02,
5.267918e-03,
-2.871187e-02,
-1.127607e-02,
-9.126355e-02,
-8.756249e-02,
-2.025539e-02,
-1.984026e-02,
-6.924725e-03,
-1.195736e-02,
-3.642868e-02,
1.602627e-02,
3.201520e-02,
-8.766486e-03,
5.144151e-03,
-5.989973e-03,
-5.589266e-02,
-7.337162e-02,
-5.090014e-02,
-7.157473e-02,
-4.450043e-02,
-2.095022e-04,
-3.437826e-02,
-1.208519e-02,
1.744886e-03,
-3.231172e-02,
-5.602435e-02,
-5.245318e-02,
-8.400584e-02,
-8.837709e-02,
-3.834724e-02,
7.270203e-03,
-3.593259e-02,
-3.220198e-02,
2.618602e-02,
-2.203841e-02,
-4.096812e-02,
-4.378455e-02,
-3.098879e-02,
-6.657747e-02,
-8.104091e-02,
-8.939361e-02,
4.192718e-04,
5.380126e-02,
5.350564e-02,
2.342411e-02,
8.575928e-02,
6.558105e-02,
-3.054575e-02,
-6.564252e-02,
-9.407917e-02,
-1.032217e-01,
-6.091735e-02,
-4.490298e-02,
1.132939e-02,
5.252694e-02,
7.163884e-02,
4.606657e-02,
1.114668e-01,
4.452252e-02,
4.038799e-03,
-7.357354e-02,
-6.879266e-02,
-9.786376e-02,
-6.261249e-02,
1.283379e-01,
6.708911e-02,
4.251831e-02,
2.014685e-03,
-2.393319e-02,
5.473399e-02,
2.837000e-02,
-2.354881e-02,
-4.261646e-02,
-3.164825e-02,
-3.451808e-03,
5.316785e-02,
1.480410e-01,
6.459002e-02,
-2.929665e-02,
-3.563087e-02,
-5.928119e-02,
-4.930288e-02,
-2.612032e-02,
-1.651532e-03,
3.116809e-02,
1.757472e-02,
2.327489e-02,
9.047725e-02,
1.214452e-01,
1.012137e-02,
-8.615816e-02,
-4.166770e-02,
-5.325981e-03,
-7.155349e-03,
1.884132e-02,
1.724236e-02,
7.275607e-02,
1.083930e-01,
1.225298e-01,
8.178830e-02,
1.001831e-01,
-5.574774e-02,
-7.277970e-03,
-4.518748e-02,
-2.258237e-02,
-5.448502e-02,
-5.140335e-02,
5.657992e-02,
6.261033e-02,
1.254215e-01,
1.563362e-01,
1.933879e-01,
7.729489e-02,
-5.825570e-02,
-1.086858e-01,
-7.145267e-02,
-3.150068e-02,
-4.213920e-02,
-1.352151e-02,
-2.238669e-02,
1.046727e-01,
1.559908e-01,
1.431663e-01,
6.510975e-02,
-6.506299e-04,
-2.527446e-02,
-1.501763e-02,
-2.230663e-02,
-3.917824e-02,
-3.198627e-02,
-7.767101e-02,
-1.803452e-02,
-3.246217e-02,
-1.974176e-02,
2.911546e-03,
-2.438806e-02,
3.441373e-02,
-2.897373e-02,
2.487191e-02,
3.860199e-02,
5.862956e-02,
1.114116e-01,
3.614954e-02,
4.339595e-02,
2.247671e-02,
-8.099558e-03,
-5.140561e-02,
-1.235739e-01,
5.996798e-03,
5.787736e-03,
-3.560681e-02,
7.890990e-02,
1.101000e-01,
7.584692e-02,
5.253012e-03,
1.910888e-02,
6.037217e-02,
5.346185e-03,
7.389396e-03,
-9.503844e-02,
3.119811e-02,
5.491095e-02,
9.239589e-02,
1.613429e-01,
9.719574e-02,
1.638718e-02,
3.443265e-02,
4.709544e-02,
5.151849e-02,
-2.339308e-03,
-5.066011e-02,
-1.044322e-01,
1.338611e-02,
1.197559e-02,
8.815802e-02,
1.685450e-01,
1.884584e-01,
1.635377e-01,
1.636495e-01,
9.904404e-02,
5.685092e-02,
-3.373357e-03,
-6.113747e-02,
-1.159045e-02,
1.230798e-02,
4.796397e-02,
2.219505e-01,
2.989819e-01,
1.859687e-01,
1.142970e-01,
2.606032e-02,
-1.794584e-03,
-3.272859e-03,
-4.481593e-02,
-6.162392e-02,
-8.982339e-03,
-2.424462e-02,
-1.650355e-02,
-1.672648e-02,
8.738786e-02,
5.704384e-02,
5.156280e-02,
-1.532832e-02,
-4.896377e-02,
-3.353646e-02,
-4.250287e-02,
2.983165e-03,
1.107926e-01,
1.340072e-01,
-1.819742e-02,
-5.277505e-02,
8.508959e-03,
-6.670239e-02,
-7.389449e-02,
-4.822869e-02,
7.400277e-03,
-8.509961e-03,
-4.020391e-02,
5.809879e-02,
1.708633e-01,
1.421571e-01,
2.746915e-03,
1.365217e-03,
-4.587908e-02,
-3.716910e-02,
-2.417772e-02,
-3.048243e-02,
-2.551003e-02,
1.122179e-02,
6.236557e-02,
1.186234e-01,
1.280937e-01,
1.253970e-01,
-2.037895e-02,
-6.734599e-02,
-6.690103e-02,
-4.388124e-02,
-2.077758e-02,
-2.520501e-02,
2.701207e-02,
2.623997e-02,
9.623647e-02,
1.648077e-01,
1.293172e-01,
8.718359e-02,
2.150080e-02,
1.155327e-02,
-2.200245e-02,
-1.052809e-02,
-4.774939e-03,
-1.568247e-02,
-3.112004e-02,
4.422338e-02,
5.438168e-02,
1.007984e-01,
7.187045e-02,
1.987228e-02,
-1.193357e-02,
-6.622573e-03,
3.568096e-02,
1.332631e-02,
-1.916191e-04,
2.075561e-02,
8.263201e-03,
3.278788e-03,
5.894632e-02,
5.277254e-02,
-7.408612e-03,
3.212780e-02,
1.189931e-02,
-5.562631e-02,
1.959259e-02,
2.806906e-02,
5.413236e-02,
3.992612e-02,
3.877898e-02,
-7.181770e-02,
-7.066882e-02,
-6.899038e-02,
-3.968520e-02,
-4.815651e-02,
2.460429e-02,
-1.033790e-02,
1.131336e-02,
9.556967e-04,
-1.272867e-02,
-1.113824e-02,
-4.684618e-03,
-5.412195e-02,
-3.086933e-02,
-6.864102e-02,
-9.419201e-02,
-3.181985e-02,
3.033792e-02,
2.804055e-02,
-1.487990e-02,
-4.208015e-02,
6.791512e-03,
1.181477e-02,
-2.671857e-02,
-1.915281e-02,
-9.867993e-02,
-8.632376e-02,
-8.067636e-02,
-9.093529e-02,
3.321591e-02,
-3.825350e-02,
-4.080568e-02,
-2.651654e-02,
-7.435198e-02,
-1.126960e-01,
-1.029314e-01,
-5.157208e-02,
-6.377744e-02,
7.036923e-04,
-8.014470e-02,
-5.881209e-02,
-2.256144e-02,
-5.869313e-02,
4.977098e-02,
-1.599680e-02,
-4.425428e-02,
-1.695570e-02,
-5.154123e-02,
-5.348545e-02,
-1.014417e-02,
1.220520e-02,
-3.047537e-02,
7.061005e-02,
-2.839924e-02,
5.679058e-02,
1.329891e-01,
1.205596e-01,
3.377222e-02,
4.777142e-02,
-7.236819e-03,
-4.346077e-03,
-3.386845e-02,
9.012484e-03,
8.877010e-02,
1.113561e-01,
5.134711e-02,
1.171625e-01,
1.306474e-01,
1.284058e-01,
1.746166e-01,
8.366761e-02,
5.818991e-03,
4.148811e-03,
4.626992e-02,
-4.735766e-04,
1.025571e-01,
1.750619e-01,
2.845486e-02,
8.822086e-02,
6.360006e-02,
7.831080e-02,
1.074167e-01,
1.247619e-01,
7.601551e-02,
8.086085e-02,
2.402974e-02,
2.599630e-02,
3.706171e-02,
1.535160e-01,
6.909247e-02,
3.737473e-02,
4.574033e-02,
1.585504e-02,
2.696848e-02,
3.871296e-02,
5.158439e-02,
6.973910e-02,
3.229111e-02,
3.208916e-02,
9.942817e-02,
8.086913e-02,
8.145558e-02,
-2.356849e-02,
5.958450e-03,
4.390041e-03,
2.972601e-02,
-2.568465e-02,
9.466211e-02,
9.566893e-03,
5.381524e-02,
1.714914e-02,
-1.261400e-02,
1.614057e-01,
-1.978131e-03,
-1.697481e-02,
1.042234e-02,
2.364462e-03,
8.971502e-03,
-2.220728e-03,
1.102376e-02,
-2.601180e-04,
2.534701e-02,
-1.063901e-02,
6.662227e-02,
4.385153e-02,
-6.855658e-02,
-1.082465e-01,
-9.162744e-02,
-1.467671e-01,
-8.648370e-02,
-1.302090e-01,
-8.654308e-02,
-6.975365e-02,
-1.917703e-02,
3.453107e-02,
4.524890e-02,
6.791388e-03,
7.189470e-03,
4.932171e-02,
3.069036e-02,
7.252042e-02,
7.840354e-02,
5.939480e-02,
2.644543e-02,
2.294675e-02,
3.791650e-02,
9.413378e-03,
-7.652856e-02,
5.097370e-02,
2.204372e-02,
1.584074e-02,
7.666400e-02,
5.729271e-02,
8.842070e-02,
4.685448e-02,
6.309403e-02,
1.622344e-02,
-1.987854e-02,
1.347107e-02,
2.587303e-02,
-1.049026e-02,
4.792348e-02,
4.484444e-02,
-2.250939e-03,
1.904142e-02,
-1.956025e-02,
2.852142e-02,
-1.543873e-02,
-5.898793e-02,
1.387265e-02,
9.658056e-03,
3.189364e-02,
5.538423e-02,
6.399857e-02,
3.501403e-02,
-5.961016e-02,
-1.197234e-01,
-1.788585e-01,
-1.319884e-01,
-6.900328e-02,
-2.033233e-02,
-1.101937e-01,
-4.509707e-02,
4.194850e-03,
-1.228479e-01,
1.002306e-01,
-8.234337e-02,
-1.330058e-01,
-1.046379e-01,
-1.929992e-01,
-9.416727e-02,
-4.649083e-02,
-6.760816e-02,
-5.227292e-02,
-3.595663e-02,
-7.101169e-02,
-4.901852e-02,
4.134038e-02,
-5.090380e-02,
-1.344913e-01,
-1.292679e-01,
-1.443274e-01,
-2.858368e-03,
8.912583e-03,
-2.114230e-02,
1.358502e-02,
-6.665988e-03,
-6.403436e-02,
-8.308048e-03,
6.863661e-02,
1.836801e-02,
-4.006560e-02,
3.097295e-02,
1.638730e-02,
2.384833e-02,
1.602064e-02,
1.139004e-02,
2.589803e-02,
2.191263e-02,
1.814330e-02,
8.551938e-02,
9.338620e-02,
5.526541e-02,
5.625452e-02,
3.735485e-02,
2.979661e-02,
3.846437e-02,
3.033689e-02,
1.434120e-02,
3.915176e-02,
9.295795e-03,
2.259842e-02,
5.631245e-02,
1.241847e-01,
5.811541e-02,
1.867396e-02,
-1.791496e-02,
-3.483912e-02,
3.728670e-03,
-1.258242e-02,
1.551045e-02,
2.178721e-02,
-1.013617e-02,
2.672937e-02,
-2.309738e-02,
6.235332e-02,
4.359766e-02,
3.861981e-02,
-1.625328e-02,
-6.418683e-02,
-1.189503e-01,
-4.724551e-02,
1.799415e-02,
-9.687675e-03,
-5.674597e-02,
-3.618551e-04,
-6.527295e-02,
6.921907e-02,
3.644777e-02,
3.292997e-02,
-1.821476e-02,
-4.456752e-02,
-6.380528e-02,
-4.649653e-02,
-2.968768e-02,
-3.941519e-02,
-4.626576e-02,
-5.248389e-02,
-9.515060e-03,
2.849877e-02,
8.403444e-02,
6.526829e-02,
4.844975e-02,
-3.187250e-02,
-2.527806e-02,
-9.054640e-02,
-1.242510e-02,
2.001443e-02,
-3.518941e-02,
3.138237e-02,
1.317789e-02,
5.562124e-03,
1.114989e-02,
2.151847e-02,
8.714415e-02,
2.112639e-02,
3.546226e-02,
-7.712568e-02,
-5.911664e-02,
-4.155523e-02,
7.371663e-02,
-2.591586e-03,
2.951778e-02,
3.388370e-02,
1.272852e-01,
9.144615e-02,
2.272193e-02,
7.283836e-03,
-7.009264e-02,
-6.671192e-02,
-1.736623e-02,
-4.140426e-02,
2.178608e-02,
3.312912e-02,
3.585600e-02,
9.832961e-02,
6.420418e-02,
-5.090969e-02,
2.725855e-02,
6.872339e-03,
-3.652379e-02,
1.387205e-03,
1.081604e-02,
1.634493e-02,
8.138806e-03,
-1.073916e-02,
3.594875e-02,
5.420813e-02,
9.278635e-02,
6.683695e-02,
-1.502521e-02,
-2.507696e-02,
-7.854219e-02,
-6.276407e-03,
8.904472e-02,
3.374137e-02,
5.596644e-02,
-3.479577e-03,
-2.882363e-03,
4.815740e-02,
5.127494e-02,
3.428423e-02,
1.187747e-02,
-2.559269e-02,
-1.099248e-02,
5.133115e-02,
8.646615e-02,
7.527669e-02,
-6.290800e-03,
-1.673579e-02,
2.252192e-03,
6.687567e-02,
-4.011182e-02,
-4.254999e-02,
-2.801869e-02,
-3.785038e-02,
4.955642e-02,
7.627060e-02,
6.607293e-02,
4.012179e-02,
-1.685185e-02,
-1.339929e-03,
-5.486332e-02,
6.197823e-02,
-6.886279e-02,
-1.659193e-01,
-1.409222e-01,
-8.690086e-02,
-3.627189e-02,
3.496755e-02,
2.287140e-02,
-3.214775e-02,
1.801816e-02,
-5.073179e-02,
3.639274e-02,
6.641159e-03,
-2.452422e-02,
-1.522952e-01,
-2.019871e-01,
-1.565254e-01,
-9.637326e-02,
-6.835495e-02,
-5.678983e-02,
4.468321e-02,
-1.682247e-02,
5.909846e-02,
6.393854e-02,
4.164526e-02,
-6.059454e-04,
-4.637482e-02,
-1.445139e-01,
-9.540525e-02,
-7.060712e-02,
-3.438180e-02,
3.021532e-03,
6.636578e-02,
3.998254e-02,
1.888692e-02,
4.998411e-02,
7.437623e-02,
4.480436e-02,
-2.097009e-02,
-4.907053e-02,
-4.277913e-02,
-4.831436e-02,
4.579068e-02,
7.237744e-02,
3.384794e-02,
1.715298e-02,
-5.657560e-03,
-6.017800e-03,
3.735285e-02,
3.982360e-02,
2.704216e-02,
3.929582e-02,
2.099281e-02,
5.539483e-02,
5.051758e-02,
4.482500e-02,
6.665288e-02,
4.456192e-02,
4.379485e-03,
5.576526e-02,
6.894651e-02,
8.291709e-02,
5.148039e-02,
9.389716e-02,
6.772499e-02,
1.062603e-01,
7.547808e-02,
6.046929e-02,
8.784003e-02,
6.891104e-02,
4.583041e-02,
4.980404e-02,
1.061832e-01,
6.502197e-02,
6.478763e-02,
1.740042e-02,
2.556466e-02,
3.917391e-02,
8.939086e-02,
2.762369e-03,
3.652388e-02,
-4.579878e-02,
3.071812e-02,
4.792499e-02,
7.398927e-02,
7.454015e-02,
1.645055e-02,
-3.671502e-03,
4.991746e-02,
1.069487e-01,
6.010804e-02,
5.092406e-02,
6.414520e-02,
-5.559333e-02,
-2.410537e-02,
-4.281310e-02,
7.813432e-02,
-4.254892e-03,
1.900376e-02,
3.639315e-02,
5.718847e-02,
5.255204e-02,
3.471592e-02,
6.376535e-02,
-2.144903e-02,
-1.358983e-02,
3.838608e-02,
-1.002824e-02,
7.511811e-02,
2.174618e-02,
4.670425e-02,
2.544401e-02,
4.418915e-02,
2.758833e-02,
3.965862e-02,
-2.565072e-02,
-3.568931e-02,
-4.762553e-02,
-1.028994e-01,
-9.188154e-02,
2.538644e-02,
5.367516e-03,
-2.250035e-02,
-2.876643e-02,
1.509328e-02,
2.238256e-02,
1.667987e-02,
9.224414e-03,
-3.294515e-02,
-1.176301e-01,
-1.374178e-01,
-6.008781e-02,
1.060626e-02,
-2.837101e-02,
-8.199243e-02,
-1.085585e-01,
-1.157285e-02,
-1.549741e-02,
3.700431e-02,
8.558528e-02,
3.144834e-02,
-2.093722e-02,
-8.991349e-02,
-2.522235e-02,
7.687581e-02,
-1.641703e-02,
-3.150566e-02,
-7.021422e-02,
6.024381e-03,
-3.817018e-02,
6.110717e-02,
7.672255e-02,
5.962692e-02,
1.761264e-03,
-7.957725e-03,
5.914828e-03,
1.188950e-01,
3.575975e-02,
3.916697e-02,
2.057429e-02,
5.001682e-02,
8.317668e-03,
7.389516e-02,
1.106994e-01,
7.983072e-02,
8.191880e-03,
-8.392375e-03,
8.378147e-03,
1.211289e-01,
1.042133e-01,
4.909677e-02,
7.806583e-02,
1.055052e-01,
1.110823e-01,
1.362382e-01,
8.894868e-02,
-4.501972e-03,
-5.406757e-02,
-1.021653e-01,
-7.553981e-02,
8.388599e-02,
1.278887e-01,
9.673277e-02,
5.685497e-02,
8.951600e-02,
9.231008e-02,
5.933341e-02,
3.320914e-02,
-4.289418e-02,
-8.001813e-02,
-1.677552e-02,
1.715866e-04,
5.125800e-02,
8.655259e-02,
2.717448e-02,
4.591861e-02,
7.228599e-02,
2.055342e-02,
-7.566981e-03,
-4.957611e-03,
-4.432392e-02,
-9.210406e-02,
-1.220464e-01,
-4.746541e-02,
1.127212e-01,
9.952556e-02,
1.004727e-01,
6.111600e-02,
5.946123e-02,
4.596134e-02,
-1.635857e-02,
-5.079271e-02,
-9.186173e-02,
-7.506640e-02,
-4.460982e-02,
9.823282e-03,
-4.201806e-02,
-6.483368e-02,
-5.817394e-02,
-2.215150e-02,
2.108987e-02,
-3.557929e-02,
-1.032524e-01,
-1.250246e-01,
-1.703391e-01,
-9.109326e-02,
-5.383449e-02,
-1.825007e-02,
-1.486147e-02,
-1.722965e-02,
1.369584e-02,
5.406507e-02,
7.152670e-02,
2.747826e-02,
2.958375e-02,
-8.740526e-02,
-1.103096e-01,
-1.165130e-01,
-1.351316e-01,
-8.686520e-02,
-2.867108e-02,
3.893957e-02,
4.839808e-02,
1.075997e-01,
6.658368e-02,
3.207121e-02,
2.177780e-04,
-4.283807e-02,
-8.313605e-02,
-1.261097e-01,
-8.513036e-02,
-6.485393e-02,
-1.524583e-02,
2.716484e-02,
1.096971e-01,
1.146991e-01,
9.646764e-02,
9.045953e-02,
7.910077e-03,
5.249263e-03,
-6.595108e-02,
-1.524809e-01,
-1.789661e-01,
-7.075278e-02,
-2.050105e-02,
5.479809e-02,
1.339779e-01,
2.341646e-01,
1.661492e-01,
9.234712e-02,
-1.551911e-04,
2.824591e-02,
2.270918e-03,
-5.117423e-02,
2.661016e-02,
-5.262771e-02,
2.567786e-02,
9.548496e-02,
1.678560e-01,
1.072574e-01,
1.124552e-01,
6.682605e-02,
-5.936228e-03,
4.013262e-02,
1.687663e-02,
8.773632e-02,
3.408717e-02,
-4.161824e-02,
-4.394014e-02,
2.791061e-02,
8.571319e-02,
1.221989e-01,
1.037397e-01,
2.135545e-02,
1.259628e-02,
6.952304e-02,
5.180706e-02,
-7.344597e-03,
-8.331198e-02,
-1.161315e-01,
-8.710685e-02,
-8.405645e-02,
6.793176e-05,
5.969847e-02,
6.158085e-02,
1.225236e-01,
1.445720e-01,
2.486913e-02,
-6.602029e-03,
-7.491293e-02,
-1.528945e-01,
-2.216277e-02,
-7.255718e-02,
-2.482684e-02,
1.939781e-02,
5.937106e-02,
1.054917e-01,
1.078994e-01,
2.573358e-02,
2.084350e-02,
1.007639e-02,
-1.515146e-01,
-1.465803e-01,
-6.700743e-02,
4.325219e-03,
3.002231e-02,
4.514641e-02,
5.152699e-02,
2.866586e-02,
5.636355e-02,
2.365616e-02,
2.051838e-02,
-6.348384e-02,
-1.083828e-01,
-9.977528e-02,
-4.097815e-02,
-5.157744e-02,
1.542160e-02,
5.800385e-02,
8.640705e-02,
1.940257e-02,
-3.681158e-03,
3.373916e-02,
-4.482044e-02,
-6.674244e-02,
-5.687770e-02,
-9.155774e-02,
-8.209968e-02,
-4.836125e-02,
-4.101410e-03,
3.170037e-02,
2.274641e-03,
-5.163883e-03,
-4.411729e-03,
1.284257e-02,
-1.798339e-02,
-6.288480e-02,
-3.162996e-02,
8.984255e-03,
-5.774115e-02,
7.444225e-02,
6.563895e-02,
4.882861e-02,
4.047406e-02,
-2.208303e-03,
2.385931e-02,
1.329605e-02,
2.773534e-02,
2.838800e-02,
2.021564e-02,
-5.482803e-02,
2.960652e-02,
6.709567e-02,
8.061408e-02,
5.801234e-04,
-8.112333e-03,
2.705467e-02,
4.369289e-02,
1.896821e-02,
-2.745850e-02,
-4.436217e-02,
-4.918503e-02,
-6.490473e-02,
-4.310764e-02,
1.018742e-01,
3.564833e-02,
3.971519e-02,
-1.661222e-02,
-2.686848e-02,
-1.139064e-02,
-1.171479e-02,
-4.406942e-02,
-4.871780e-02,
-7.424575e-02,
-9.974926e-02,
-5.835231e-02,
1.427777e-01,
3.798204e-02,
-1.818647e-02,
-6.390671e-03,
-1.932814e-02,
5.484822e-02,
8.957744e-02,
7.941363e-02,
4.482853e-02,
1.605646e-02,
-5.555089e-02,
-1.150832e-01,
6.376198e-02,
-1.745685e-02,
6.661891e-02,
8.679228e-02,
1.309008e-01,
9.948740e-02,
1.395047e-01,
9.060863e-02,
1.064773e-01,
5.800181e-02,
9.993549e-03,
-4.665397e-02,
-1.512515e-02,
-3.120892e-02,
1.368766e-02,
5.270479e-02,
1.067263e-01,
1.626358e-01,
5.404426e-02,
6.050404e-02,
7.582124e-02,
4.458917e-02,
-2.893456e-02,
2.661445e-03,
2.725952e-02,
5.569160e-03,
-6.551865e-02,
-4.814534e-02,
-5.242383e-02,
-2.588309e-03,
-1.950266e-02,
3.612867e-02,
3.819152e-02,
-2.936585e-02,
2.451121e-02,
2.825595e-02,
7.404663e-02,
-2.144585e-02,
-9.942611e-02,
-1.047968e-01,
-1.255218e-01,
-3.604485e-03,
-4.618245e-02,
-9.796271e-03,
-3.877268e-02,
-1.006493e-02,
2.264133e-02,
-2.612815e-02,
3.499044e-02,
-1.749709e-03,
-3.904451e-02,
-2.671718e-02,
-2.300442e-02,
-6.044231e-02,
-7.455086e-03,
2.651521e-02,
7.743933e-03,
2.348184e-02,
-1.111657e-02,
-8.773285e-02,
3.943390e-02,
5.597191e-02,
4.494809e-02,
-3.201627e-02,
1.943900e-02,
2.420847e-02,
-2.132409e-03,
4.915032e-02,
4.085249e-02,
-3.976888e-03,
-6.358422e-02,
8.441439e-03,
1.420888e-02,
6.098106e-02,
-2.144574e-02,
3.254342e-03,
7.908870e-02,
6.439782e-02,
6.999715e-02,
5.972749e-02,
7.193529e-02,
5.626296e-02,
6.866691e-04,
3.176307e-02,
3.647516e-02,
1.138113e-01,
1.277513e-01,
1.165593e-01,
7.422533e-02,
1.624841e-01,
9.306579e-02,
1.626567e-01,
8.235147e-02,
1.266116e-01,
-4.617936e-03,
4.783880e-02,
-5.712751e-02,
-6.546822e-02,
-1.160604e-02,
-5.929658e-02,
-8.416457e-02,
1.717751e-02,
-8.702364e-03,
-5.781686e-02,
6.255965e-02,
1.047556e-01,
-1.003085e-02,
-4.691468e-02,
-2.552232e-02,
-2.325879e-02,
1.612793e-02,
1.114875e-01,
1.040321e-01,
1.736967e-01,
1.907897e-01,
1.558252e-01,
1.604648e-01,
8.713768e-02,
1.174475e-01,
2.193641e-02,
-3.282254e-02,
3.791932e-02,
5.948033e-02,
1.484983e-01,
1.166743e-01,
9.015293e-02,
1.915609e-02,
1.534202e-03,
4.539359e-02,
8.776488e-02,
-1.390719e-03,
3.573546e-02,
-3.194560e-02,
-8.322740e-03,
7.767485e-02,
9.884809e-02,
5.159311e-02,
2.610284e-02,
-5.538578e-02,
2.778564e-02,
4.027281e-02,
5.990931e-03,
-1.052930e-01,
-4.750298e-02,
-9.632234e-03,
3.994545e-02,
3.665275e-02,
1.021673e-01,
9.263295e-02,
-2.890357e-02,
-9.075584e-02,
7.538189e-02,
1.473143e-02,
-1.106624e-03,
-1.189897e-01,
-8.753232e-02,
-4.702636e-02,
3.047347e-03,
1.340393e-02,
3.809564e-02,
3.348519e-02,
-3.602959e-02,
-6.655259e-02,
7.821062e-02,
2.766383e-02,
-2.815763e-03,
-1.076925e-02,
-1.161010e-01,
-4.494785e-02,
-2.229468e-02,
1.019719e-02,
-7.627527e-03,
1.787201e-02,
-3.440633e-02,
1.878516e-02,
4.837069e-02,
-3.241574e-02,
-2.127903e-02,
1.713801e-02,
-8.025981e-02,
-5.218777e-02,
-5.975465e-02,
-6.262119e-02,
-1.169663e-02,
-8.736024e-02,
-4.707507e-02,
4.385423e-02,
5.636487e-02,
-2.821446e-02,
-1.460113e-02,
-3.951835e-02,
-1.232134e-01,
2.232135e-03,
-7.077239e-02,
-9.211196e-02,
-1.023120e-01,
-7.052298e-02,
-3.597431e-02,
4.989361e-02,
-1.808398e-02,
-2.271252e-02,
-5.660347e-03,
-7.422094e-02,
-7.596050e-02,
-8.286317e-02,
-3.945218e-02,
-6.350793e-02,
-1.069149e-01,
-7.999095e-02,
-3.531472e-02,
2.493086e-02,
3.324823e-02,
1.996967e-02,
3.817963e-02,
-2.001001e-02,
-6.473564e-02,
-1.506600e-02,
-5.957387e-02,
-5.947835e-02,
-2.000589e-02,
3.030233e-02,
3.612516e-02,
4.357041e-02,
1.088711e-01,
7.423990e-02,
4.711383e-02,
1.089404e-01,
-1.730368e-02,
8.601773e-03,
1.407474e-02,
-1.167869e-02,
6.952564e-02,
1.109539e-01,
6.588290e-02,
1.139325e-01,
7.316605e-02,
2.396040e-02,
9.112836e-03,
3.347039e-02,
-5.821399e-02,
-2.966692e-02,
1.145413e-02,
-7.302847e-02,
-2.723946e-02,
-4.640940e-02,
-2.806623e-02,
3.332050e-02,
1.741390e-02,
-3.389681e-03,
-3.097996e-02,
-8.384114e-03,
-1.164080e-02,
1.991016e-02,
-5.648373e-02,
9.228991e-03,
2.646678e-02,
7.120721e-02,
1.312640e-01,
2.057879e-01,
1.847472e-01,
1.964877e-01,
1.529668e-01,
7.164008e-02,
8.579759e-02,
1.184137e-02,
-6.031789e-02,
-1.857182e-02,
1.653711e-02,
1.134589e-03,
3.940716e-02,
5.877784e-02,
6.010370e-02,
9.404676e-02,
1.076278e-01,
5.962957e-02,
5.163796e-02,
1.338322e-03,
-1.141091e-01,
-5.227582e-02,
5.778583e-02,
6.285739e-02,
3.237592e-02,
-9.975306e-02,
3.355505e-02,
9.113526e-02,
6.881287e-02,
4.426607e-02,
-2.814377e-02,
-5.757309e-02,
-1.195539e-01,
-7.953924e-03,
1.104881e-01,
4.819527e-02,
6.059406e-02,
-1.224957e-01,
-9.617296e-03,
4.189091e-02,
2.961510e-02,
5.231168e-02,
-1.404092e-02,
-5.496890e-02,
-5.522043e-02,
5.151222e-02,
5.117325e-02,
1.067656e-01,
-2.266545e-02,
-1.460890e-01,
-4.862645e-02,
4.579537e-02,
1.141836e-02,
3.367436e-03,
-7.025197e-02,
-9.567927e-02,
1.420631e-02,
3.118191e-02,
4.596154e-02,
1.527007e-02,
-7.568979e-02,
-2.021968e-02,
1.267196e-03,
2.023631e-02,
2.655918e-02,
-2.001551e-03,
-2.357799e-02,
9.266486e-03,
-3.617860e-02,
1.245136e-02,
3.559709e-02,
-2.977093e-02,
-1.884722e-02,
7.372243e-02,
3.770211e-02,
1.244673e-02,
-1.831225e-02,
8.275024e-04,
-9.301135e-02,
-4.806472e-03,
5.259939e-03,
2.828292e-02,
2.073644e-02,
-5.264449e-02,
-1.354050e-02,
4.474948e-02,
-3.110881e-03,
-7.959168e-02,
-6.366368e-02,
-1.425132e-02,
-3.532144e-02,
-5.901200e-02,
-7.498739e-03,
-1.166464e-02,
1.688337e-02,
3.888994e-03,
1.056718e-02,
-2.199208e-02,
4.435841e-03,
-3.067495e-02,
-3.616810e-03,
7.626360e-03,
-7.474486e-02,
2.904733e-03,
-7.123510e-02,
1.201023e-02,
-1.295433e-02,
2.612937e-02,
-3.069090e-02,
-1.236883e-02,
-5.424680e-02,
-2.428491e-02,
3.445878e-02,
-1.927415e-02,
8.432164e-03,
1.232377e-03,
-1.122426e-02,
-1.957586e-02,
-5.070042e-02,
-2.626276e-02,
-7.728761e-02,
-8.513463e-02,
-9.314439e-02,
-6.699500e-02,
-6.085377e-02,
-3.750284e-02,
-3.317952e-02,
-7.240816e-02,
-4.525561e-02,
-1.158044e-01,
-1.528981e-01,
-1.344758e-01,
-1.043587e-01,
-7.869560e-02,
-1.118089e-01,
-2.371409e-02,
-1.340476e-02,
-6.046083e-02,
-5.332121e-02,
-4.751599e-02,
-3.271405e-02,
6.199629e-02,
6.372760e-02,
-4.667724e-03,
-2.533932e-02,
8.717439e-03,
-7.715923e-02,
8.605156e-03,
4.276495e-02,
1.266209e-01,
2.473540e-02,
1.892729e-03,
-2.908063e-02,
-1.696462e-02,
1.334591e-02,
-3.024012e-02,
-1.371824e-01,
-1.836788e-01,
-1.313410e-01,
-7.599894e-02,
-5.318308e-02,
-3.072575e-02,
7.237945e-02,
3.652889e-03,
6.452435e-02,
-1.115073e-02,
-1.652545e-03,
-2.890509e-02,
-1.829660e-01,
-1.789595e-01,
-1.575184e-01,
-2.826746e-02,
-3.623440e-02,
-3.743922e-02,
-1.527670e-02,
-2.066744e-02,
-4.160937e-02,
-1.901211e-02,
-9.057081e-03,
-9.717523e-02,
-2.195655e-01,
-2.285639e-01,
-1.432317e-01,
-9.027284e-02,
-6.422567e-02,
-2.737175e-02,
-1.233368e-01,
-5.492135e-02,
-5.127158e-02,
-2.834070e-02,
2.608133e-02,
-2.723075e-02,
-6.390035e-02,
-6.143359e-02,
-6.803612e-02,
-9.417383e-02,
-7.475882e-02,
-4.103217e-02,
-8.989099e-02,
1.867955e-02,
-2.783146e-02,
2.141176e-03,
2.025980e-02,
6.201984e-04,
2.191899e-02,
6.426699e-02,
1.151152e-02,
4.934993e-03,
-3.284423e-04,
5.196957e-02,
-6.248976e-02,
-4.965203e-02,
1.053504e-02,
-1.779351e-02,
2.867574e-02,
4.987919e-02,
1.081751e-01,
5.767713e-02,
-3.832888e-03,
3.230892e-02,
6.774791e-02,
2.307089e-02,
-5.085071e-02,
-2.694821e-02,
-9.063243e-03,
-4.161848e-03,
-3.556381e-02,
2.206236e-02,
1.083343e-01,
3.449726e-02,
-2.155671e-02,
1.004255e-02,
3.735117e-03,
-8.070274e-03,
-1.495981e-02,
-1.310845e-02,
-7.794864e-02,
-6.444468e-02,
-4.781085e-02,
-8.947534e-02,
-1.771596e-02,
5.954369e-04,
-2.354274e-02,
7.630370e-03,
-3.375442e-03,
2.067863e-02,
-1.127064e-01,
-8.111336e-02,
-7.854116e-02,
-1.064808e-01,
-1.089891e-01,
-1.576560e-01,
-1.038005e-01,
-1.197866e-01,
-6.890556e-02,
-3.466029e-02,
6.295589e-02,
6.199873e-03,
6.590650e-03,
-3.627441e-02,
-1.413751e-02,
-1.044740e-02,
-5.122527e-02,
-1.086925e-01,
-1.621091e-02,
-7.528480e-02,
-3.267210e-02,
5.454399e-02,
4.327870e-02,
-2.245165e-02,
-4.466462e-02,
1.195382e-02,
5.376741e-02,
4.628624e-04,
9.011317e-02,
9.233306e-02,
1.119770e-01,
7.777903e-02,
1.257573e-01,
7.835089e-02,
5.224457e-02,
5.349792e-02,
-9.689162e-03,
-1.275647e-02,
6.140248e-02,
1.315516e-02,
3.476806e-02,
7.830099e-02,
3.594441e-02,
2.695058e-02,
1.560380e-02,
5.266751e-02,
9.315708e-02,
6.854954e-02,
1.955704e-02,
-1.293949e-02,
-2.688195e-02,
-5.237482e-02,
-2.533985e-02,
2.692578e-03,
-8.542530e-02,
-1.111619e-01,
-1.070456e-01,
1.129130e-02,
3.491743e-02,
4.471584e-02,
-6.714442e-02,
4.270188e-03,
3.221922e-02,
-9.623132e-02,
-8.921012e-02,
-8.147302e-02,
-1.145483e-01,
-7.645580e-02,
-1.172091e-01,
-1.056000e-01,
-7.557389e-02,
7.217472e-03,
3.345362e-02,
-2.083793e-02,
-5.048694e-02,
-1.062531e-01,
-1.350472e-01,
-1.078924e-01,
-9.431913e-02,
-1.826098e-02,
-1.527574e-01,
-1.486042e-01,
-2.421157e-02,
2.342894e-02,
8.495734e-02,
3.824487e-03,
-1.460626e-01,
-1.753780e-01,
-6.807161e-02,
-3.229729e-02,
-5.202785e-02,
-3.251013e-02,
-1.467082e-01,
-4.786580e-02,
-5.659846e-02,
5.049737e-03,
4.475275e-02,
-6.896293e-02,
1.175600e-02,
1.291883e-02,
-4.629530e-02,
4.140824e-02,
8.462109e-02,
3.360142e-02,
-6.263983e-02,
4.338926e-02,
8.410503e-02,
3.346771e-02,
7.581200e-02,
5.329903e-02,
7.280048e-02,
3.734747e-02,
-2.673640e-02,
6.293118e-02,
8.187706e-02,
3.295629e-02,
1.986590e-02,
8.238465e-02,
2.872419e-02,
1.471727e-02,
3.418277e-02,
2.706205e-02,
2.444150e-02,
6.448750e-03,
2.180764e-02,
6.138308e-04,
1.678069e-02,
1.247233e-02,
3.235029e-02,
6.476472e-02,
1.030527e-01,
6.955224e-02,
4.257896e-02,
7.102855e-02,
5.306069e-02,
5.971335e-02,
-1.600984e-02,
-4.154247e-02,
-5.046393e-02,
2.270209e-02,
-3.129273e-03,
4.796617e-02,
4.269778e-02,
-3.258011e-02,
-1.753845e-02,
1.432258e-02,
-1.003312e-02,
2.108139e-02,
-4.187975e-02,
-8.628134e-02,
-4.775609e-02,
-1.581161e-02,
2.201531e-02,
4.275349e-02,
7.935720e-02,
3.580644e-02,
4.890068e-02,
3.175623e-02,
-3.097829e-02,
1.071291e-02,
1.322605e-03,
1.215518e-02,
3.166164e-02,
5.929443e-02,
3.777308e-02,
1.019766e-01,
9.294501e-02,
6.600806e-02,
-9.772067e-03,
-2.409451e-02,
-3.594920e-03,
-4.654814e-02,
-4.731192e-02,
-1.363890e-01,
-1.242528e-01,
-2.886732e-02,
-4.354811e-02,
-1.651828e-02,
5.591026e-02,
6.465535e-02,
6.555266e-04,
-5.777740e-02,
-2.574122e-02,
7.850613e-03,
4.302021e-02,
-2.297858e-02,
4.078444e-03,
-1.910599e-02,
-3.090788e-02,
-1.396843e-02,
2.934586e-02,
6.323495e-02,
9.839993e-02,
-3.806999e-02,
1.915202e-02,
-2.466767e-02,
-2.386970e-02,
-4.388433e-02,
-1.065327e-01,
-1.187291e-01,
-5.190877e-02,
4.464299e-02,
1.322226e-01,
1.205696e-01,
7.172162e-02,
-1.805902e-02,
-8.005203e-03,
-6.755539e-03,
-2.242173e-02,
-6.032005e-03,
-6.175053e-02,
-7.619763e-02,
-1.846155e-02,
3.438549e-02,
3.949179e-02,
1.005918e-01,
7.789355e-03,
-6.678285e-02,
-3.117563e-02,
-2.027340e-02,
3.010946e-02,
1.180252e-01,
-3.341217e-03,
-7.445592e-02,
1.834488e-02,
2.316380e-03,
3.442744e-02,
4.367797e-02,
-7.556552e-02,
-5.768500e-02,
-1.271737e-02,
-7.955506e-03,
1.276762e-03,
6.232462e-02,
3.812818e-02,
-5.625423e-02,
-1.468623e-02,
2.441042e-02,
8.730952e-02,
1.165206e-02,
-2.739658e-02,
5.308850e-02,
-1.587513e-02,
-8.161056e-03,
8.231198e-02,
-8.397853e-03,
-4.442256e-02,
4.621264e-02,
6.903757e-02,
6.735759e-02,
8.187959e-02,
1.115504e-02,
-4.518354e-02,
-2.405249e-03,
-6.809708e-03,
2.372290e-02,
-5.323493e-02,
-6.668355e-02,
8.017848e-03,
6.879818e-02,
7.122065e-03,
5.508351e-02,
3.329851e-02,
1.158069e-02,
-2.084200e-02,
8.997738e-03,
6.959160e-02,
2.094859e-02,
-3.629916e-02,
-4.812895e-02,
-1.440952e-02,
3.555424e-03,
-4.149365e-02,
-8.287513e-02,
-2.599370e-02,
-2.001913e-02,
-8.112356e-02,
-3.769691e-02,
-1.535671e-02,
3.130382e-02,
6.597605e-03,
-6.120943e-02,
-3.493081e-02,
-8.550230e-02,
-1.057175e-01,
-1.112547e-01,
-1.580022e-01,
-7.667329e-02,
-3.221025e-02,
-9.238894e-02,
-3.671710e-02,
3.280127e-02,
-5.177106e-03,
2.567551e-02,
-3.475956e-02,
-4.724931e-02,
-1.391614e-01,
-4.575702e-02,
-9.559485e-03,
-5.327507e-02,
-2.949781e-02,
-6.593008e-02,
-2.365808e-02,
4.509676e-02,
2.033312e-02,
3.390394e-02,
2.884770e-02,
7.406650e-02,
-5.898175e-03,
8.227834e-03,
-5.015852e-02,
-3.161910e-02,
-1.735641e-02,
-1.100246e-02,
-4.967237e-02,
-4.031935e-02,
-2.626903e-02,
1.962687e-02,
-1.072277e-01,
-5.319059e-02,
-9.900814e-02,
-1.414846e-02,
1.314289e-03,
-8.488595e-03,
-2.871585e-02,
-6.501478e-02,
-1.943219e-02,
-1.155352e-02,
-5.525495e-02,
-2.740628e-02,
-5.927182e-02,
-5.514921e-02,
-7.733257e-02,
-1.008847e-01,
-1.467167e-01,
-1.102882e-01,
1.021910e-02,
-8.084457e-02,
2.446718e-02,
2.983831e-02,
7.871277e-02,
5.479959e-02,
-3.256975e-02,
-4.918553e-02,
-1.166381e-01,
-1.652796e-01,
-1.541869e-01,
-1.757835e-01,
-5.400242e-03,
-4.324809e-02,
-1.295488e-02,
1.754653e-02,
8.795821e-02,
9.405265e-02,
5.251231e-02,
-4.115251e-02,
-8.418468e-02,
-7.401419e-02,
-1.717545e-01,
-1.574115e-01,
4.536236e-02,
-8.912950e-02,
-1.935538e-02,
-1.611214e-03,
6.521174e-02,
5.635671e-02,
2.933540e-02,
-6.732991e-02,
-6.181846e-02,
3.084058e-02,
-1.001004e-01,
-9.446756e-02,
7.338007e-02,
-1.433755e-04,
-4.725697e-03,
2.699411e-02,
5.961922e-03,
3.105648e-02,
4.711894e-02,
-2.352685e-02,
-2.226740e-02,
1.229824e-03,
-6.834199e-03,
-1.445187e-02,
-9.197492e-03,
3.403878e-02,
2.149696e-02,
1.356477e-02,
-3.229215e-02,
1.851150e-02,
4.014445e-02,
5.294808e-03,
-3.161234e-03,
3.776345e-02,
5.452365e-02,
3.889996e-02,
6.341041e-02,
-1.189820e-02,
3.279931e-02,
-3.530752e-02,
1.009271e-04,
2.047337e-02,
-4.222989e-02,
-7.841100e-03,
6.945545e-03,
1.853943e-02,
4.290204e-02,
3.249508e-02,
-4.089165e-02,
4.993788e-02,
4.096305e-02,
-1.527492e-03,
-4.781344e-02,
-5.622159e-02,
-3.019926e-02,
-3.162008e-02,
5.046862e-02,
5.509635e-02,
6.098088e-02,
3.790688e-02,
3.652758e-02,
1.687870e-02,
4.577354e-02,
1.318843e-02,
1.504047e-03,
-3.475971e-02,
-4.027929e-02,
-3.010528e-02,
-1.525859e-02,
-2.748163e-02,
-3.365674e-02,
4.208797e-02,
2.199325e-02,
1.496858e-02,
9.886879e-03,
-2.188587e-02,
5.910007e-03,
-3.945668e-02,
2.446644e-02,
-7.103732e-02,
-1.081828e-02,
-6.623724e-02,
-2.098541e-02,
5.016346e-03,
1.535749e-02,
-1.057680e-02,
-2.928050e-02,
-6.880035e-02,
3.571670e-02,
8.858107e-03,
5.780196e-03,
-6.620714e-02,
-2.600809e-02,
-4.646123e-02,
-1.936120e-02,
-1.665850e-03,
-4.438629e-03,
-4.673575e-02,
-4.801697e-02,
1.836641e-02,
-8.791296e-03,
-2.201152e-02,
-2.908588e-02,
1.455759e-02,
1.063838e-01,
8.563319e-02,
6.156173e-02,
2.940799e-03,
2.403527e-02,
1.929748e-02,
-8.698122e-02,
-7.851534e-02,
-2.624492e-02,
2.335252e-02,
1.587081e-02,
-3.493073e-03,
1.777479e-02,
5.468345e-02,
4.317794e-02,
-4.958694e-02,
-6.042535e-03,
-2.593895e-02,
-6.012181e-02,
-4.105880e-02,
-1.619075e-02,
-4.823162e-02,
3.009915e-02,
-2.145976e-02,
-4.116859e-02,
2.402497e-02,
5.460218e-02,
1.832386e-02,
3.841513e-02,
-2.975126e-02,
-1.049932e-01,
-3.236260e-02,
2.208127e-02,
3.429079e-03,
1.010826e-03,
-8.391654e-02,
-1.176901e-01,
-7.327229e-02,
-5.501438e-02,
-4.577508e-02,
4.408016e-02,
-6.008529e-02,
-8.381646e-02,
-1.757856e-02,
-5.653808e-02,
-1.888987e-02,
-3.008047e-02,
-6.261796e-02,
-1.741808e-01,
-1.650030e-01,
-1.750179e-01,
-7.477991e-02,
-1.448026e-02,
-3.431213e-02,
-2.257864e-02,
-1.204659e-01,
-7.050926e-02,
-4.373681e-02,
3.172210e-02,
-2.778932e-02,
-1.267522e-01,
-1.149425e-01,
-1.648383e-01,
-1.290464e-01,
-2.378030e-02,
-3.287100e-02,
-1.058560e-01,
-1.050220e-01,
-9.314672e-02,
-1.911372e-02,
-1.391616e-02,
-1.099489e-02,
-4.839904e-02,
-7.839269e-02,
-3.825233e-02,
-8.288556e-02,
-1.045082e-02,
-1.265156e-02,
-5.122158e-02,
-9.389418e-02,
-1.051848e-01,
-8.709258e-02,
-7.230369e-02,
-2.682637e-02,
-5.350282e-02,
-2.819612e-02,
-2.184875e-02,
-2.731770e-02,
2.874394e-02,
-8.503083e-03,
3.883606e-02,
-3.719865e-02,
-5.812458e-02,
-5.978632e-02,
-6.774761e-02,
-4.670882e-02,
5.272059e-03,
-1.393911e-02,
2.803164e-02,
-4.598577e-03,
2.629338e-02,
5.563085e-02,
8.447003e-02,
2.771602e-02,
2.323831e-02,
1.733502e-02,
1.323318e-02,
1.896179e-02,
5.734556e-02,
5.769096e-02,
1.974047e-02,
1.698957e-02,
6.053144e-02,
-1.598809e-02,
3.059017e-02,
-6.376686e-03,
-1.472560e-02,
1.298122e-02,
6.183980e-02,
4.443025e-02,
4.750096e-02,
6.947179e-02,
1.765831e-02,
6.358666e-03,
3.273994e-02,
4.418509e-03,
-5.134854e-02,
-1.882690e-02,
1.971569e-02,
6.909800e-02,
6.343511e-02,
2.687322e-02,
5.075791e-02,
-3.208638e-03,
6.345887e-02,
2.676361e-02,
3.384286e-02,
9.003943e-03,
-1.325578e-02,
-3.546166e-02,
-1.019158e-02,
7.440514e-03,
1.115143e-02,
-1.876589e-02,
2.244195e-02,
2.346605e-02,
2.213858e-02,
-4.759880e-02,
1.389222e-02,
-5.643738e-03,
-1.322104e-02,
-2.687735e-02,
-1.243005e-02,
-1.554909e-02,
-5.664088e-02,
8.201437e-03,
2.961153e-02,
4.727483e-02,
5.395076e-02,
1.606887e-02,
5.955902e-02,
-4.959755e-02,
-2.878534e-02,
-6.917993e-03,
-2.146121e-02,
3.335407e-02,
-4.108405e-03,
-4.686797e-03,
3.537442e-02,
3.914633e-02,
-9.857941e-03,
5.574594e-04,
8.901095e-02,
-1.397455e-01,
-1.232634e-01,
-1.633979e-02,
2.791761e-02,
5.841747e-03,
1.807111e-02,
3.441780e-02,
4.137856e-02,
6.208697e-02,
1.575438e-02,
4.630695e-02,
1.624024e-01,
-6.809767e-02,
-5.529400e-02,
-1.613664e-02,
4.391588e-02,
1.757093e-02,
7.729828e-02,
7.549267e-02,
1.187083e-01,
1.481907e-01,
1.158632e-01,
7.352079e-02,
1.704448e-01,
-1.162854e-01,
-6.002689e-02,
-5.275640e-02,
-4.353838e-03,
-1.072510e-02,
7.104429e-02,
1.042629e-01,
1.301229e-01,
9.347562e-02,
1.191122e-01,
8.955918e-02,
9.530579e-02,
-2.993080e-02,
-5.008834e-02,
-4.936234e-02,
-3.921174e-02,
2.074698e-02,
3.543482e-03,
6.975532e-02,
6.719993e-02,
3.116100e-02,
4.661720e-02,
7.218389e-02,
7.439201e-02,
7.606979e-03,
7.084610e-02,
6.939821e-02,
7.163479e-02,
8.366129e-02,
2.212556e-02,
2.765142e-02,
4.611525e-02,
-1.295435e-03,
4.122159e-03,
-3.328463e-02,
1.415024e-02,
7.550184e-02,
9.998276e-02,
8.901911e-02,
7.273363e-02,
1.009004e-01,
6.042527e-02,
2.779379e-02,
-1.681844e-02,
-2.307151e-02,
-2.714359e-02,
-4.841516e-02,
5.587108e-03,
9.385297e-03,
3.138389e-02,
8.466156e-02,
4.770852e-02,
2.941033e-02,
2.857726e-02,
1.354595e-02,
-2.529286e-02,
-3.448623e-02,
-1.347295e-02,
-6.319919e-02,
7.854728e-03,
-1.967366e-03,
-1.996325e-02,
5.030994e-02,
2.171250e-02,
3.742139e-02,
2.370935e-02,
5.989977e-02,
-4.335506e-04,
1.303581e-02,
1.334721e-03,
-4.514937e-02,
-1.841542e-02,
-2.068641e-02,
5.800872e-02,
7.889073e-02,
2.279338e-02,
9.195247e-02,
3.906074e-02,
5.266136e-02,
1.496861e-02,
-5.752238e-02,
-4.982705e-02,
-4.292917e-02,
-8.941577e-03,
1.002976e-02,
2.858953e-03,
4.781832e-02,
7.286574e-04,
-5.178418e-02,
8.511646e-04,
-3.240446e-02,
-1.098104e-01,
-4.063596e-02,
-2.992199e-02,
8.374026e-02,
-1.433297e-02,
-1.416471e-02,
-6.557744e-03,
3.166637e-02,
-3.972477e-02,
-1.006318e-01,
-4.015887e-02,
-4.323370e-02,
-1.479971e-02,
1.026868e-02,
7.348067e-02,
1.293957e-01,
-1.427452e-02,
3.288833e-02,
-1.790435e-02,
-1.584260e-01,
-9.010436e-02,
-9.291908e-02,
-1.894376e-02,
1.508231e-02,
7.682388e-02,
1.080462e-01,
1.027261e-01,
1.200184e-01,
4.266220e-02,
-4.465227e-02,
-3.616403e-02,
-1.536306e-01,
-1.129362e-01,
-7.864483e-02,
-6.040741e-02,
9.016618e-02,
1.454273e-01,
1.691787e-01,
1.953157e-01,
1.320981e-01,
3.779643e-02,
1.823463e-02,
-8.534998e-02,
-1.406778e-01,
-5.506585e-02,
-6.601975e-03,
2.033308e-02,
8.602855e-02,
1.662315e-01,
1.901115e-01,
2.172332e-01,
2.451975e-01,
1.882169e-01,
-1.678005e-02,
1.628498e-02,
3.232729e-02,
-1.984049e-02,
-1.669709e-02,
1.608630e-02,
6.430997e-02,
1.474163e-01,
8.400036e-02,
8.601332e-02,
2.042691e-01,
2.035311e-01,
5.291730e-02,
1.535723e-01,
1.791446e-01,
9.974291e-02,
3.830703e-02,
1.668962e-02,
9.207822e-02,
4.657126e-02,
2.867109e-02,
-4.433036e-02,
1.955722e-02,
-5.421647e-02,
8.765391e-02,
1.179009e-01,
1.253306e-01,
1.421894e-01,
1.320358e-01,
1.053858e-01,
2.690456e-02,
-1.740964e-02,
-6.368117e-02,
-4.169379e-02,
-4.703570e-02,
-3.925334e-02,
7.477885e-02,
1.570125e-01,
1.520076e-01,
1.424748e-01,
8.673136e-02,
5.721880e-02,
2.713490e-02,
-1.856314e-02,
-3.352921e-02,
-9.418995e-03,
-1.050577e-01,
-4.758358e-02,
1.452445e-02,
1.250037e-01,
1.243156e-01,
1.009823e-01,
2.019898e-02,
-4.320657e-02,
-4.557636e-02,
-5.503516e-02,
4.456470e-03,
-4.430633e-02,
-2.328941e-02,
-4.666156e-02,
3.453226e-02,
4.933765e-02,
6.549211e-02,
5.310840e-02,
4.323422e-02,
3.873650e-02,
-2.287352e-03,
1.139378e-02,
-2.351549e-02,
-3.951138e-02,
-9.328152e-03,
-2.671385e-02,
1.550534e-02,
3.253099e-02,
5.085930e-02,
6.906418e-02,
5.315623e-03,
1.654186e-02,
-1.224534e-02,
-2.702015e-02,
-3.289844e-02,
-3.982405e-02,
-2.475203e-02,
3.106383e-02,
4.719814e-03,
-4.921440e-02,
-5.239446e-02,
-4.002479e-02,
-1.381533e-02,
1.618956e-02,
2.109699e-02,
5.531157e-02,
1.168464e-01,
2.116506e-02,
-5.734034e-02,
3.927570e-02,
-3.032818e-02,
-8.418267e-02,
7.020850e-03,
4.523575e-02,
1.875845e-02,
-8.524409e-03,
-2.252201e-03,
3.192110e-02,
5.991044e-02,
7.578784e-02,
8.993142e-02,
1.109864e-01,
-6.030950e-02,
-5.113669e-02,
-3.110601e-02,
-1.299232e-02,
-4.122671e-02,
-4.406674e-02,
-3.528258e-02,
-1.383885e-02,
4.566542e-02,
1.168207e-01,
1.396981e-01,
1.470260e-01,
-8.863291e-02,
-6.243808e-02,
-4.473322e-02,
-7.048442e-02,
-7.031979e-02,
-8.206637e-02,
-1.459672e-01,
-9.796544e-02,
-1.138056e-01,
-2.154390e-02,
3.062729e-02,
1.570061e-01,
-3.631789e-02,
-8.365530e-03,
-8.582657e-02,
-9.401236e-02,
-4.150442e-02,
-3.734763e-02,
-1.539642e-01,
-2.201800e-01,
-1.507959e-01,
-1.570296e-01,
-4.944366e-02,
9.869733e-02,
-4.484145e-02,
-7.644062e-02,
-9.196971e-02,
-9.375143e-02,
-2.727466e-02,
-2.936326e-02,
-5.620017e-02,
-1.665311e-01,
-1.563575e-01,
-1.266718e-01,
-7.798550e-02,
-2.385404e-02,
-8.643658e-02,
-3.975695e-02,
-1.161179e-01,
-9.864605e-02,
-5.492929e-02,
-1.112833e-03,
-6.489478e-02,
-6.691723e-02,
-7.588906e-02,
-1.048631e-01,
-3.390757e-02,
3.165206e-02,
-3.333847e-02,
3.333036e-02,
-2.417296e-02,
-4.076063e-02,
-3.113850e-02,
-8.239069e-03,
-3.829919e-02,
-8.421845e-03,
-8.623251e-02,
-3.254006e-02,
4.480153e-03,
-2.717225e-02,
7.330683e-02,
5.736564e-02,
-4.557600e-02,
1.568287e-02,
-2.287253e-02,
2.627511e-03,
2.183274e-02,
-2.383836e-02,
-3.205794e-02,
-1.326215e-02,
-1.562921e-02,
-1.406505e-02,
1.551491e-03,
2.457307e-02,
1.041767e-02,
5.022958e-02,
1.338149e-02,
1.342861e-02,
2.104835e-02,
3.273885e-02,
4.733726e-02,
6.559238e-02,
2.094079e-02,
-6.756820e-03,
-8.124923e-03,
-4.025003e-02,
4.358142e-02,
4.498463e-02,
3.917421e-02,
4.978289e-02,
5.949245e-02,
6.255259e-02,
6.947237e-03,
5.536087e-02,
7.043710e-02,
4.666784e-03,
-2.655660e-02,
-5.664885e-02,
1.443699e-02,
5.292000e-03,
3.988864e-02,
9.419917e-02,
9.802908e-02,
8.235598e-02,
7.846811e-02,
6.361917e-02,
7.344007e-02,
-4.404169e-02,
3.340642e-02,
3.414915e-02,
2.315986e-02,
1.113099e-01,
2.428493e-02,
3.578771e-02,
-3.786945e-02,
-3.298558e-02,
-2.618393e-02,
-1.031609e-02,
6.478019e-02,
9.814125e-03,
1.636798e-02,
5.909999e-02,
5.527953e-02,
-2.798124e-02,
-4.960072e-02,
-8.973698e-02,
-5.573092e-02,
-1.149754e-01,
-6.808276e-02,
-2.877092e-02,
1.210652e-02,
7.792964e-02,
2.272002e-02,
3.347052e-04,
3.077281e-02,
-3.961027e-02,
-9.879510e-02,
-1.173202e-01,
-1.328076e-01,
-1.671684e-01,
-1.324959e-01,
-1.009330e-01,
-9.910870e-02,
6.573123e-02,
-3.439917e-02,
6.782837e-03,
3.279965e-02,
-1.684141e-02,
-9.309107e-02,
-8.032946e-02,
-1.600093e-01,
-1.881754e-01,
-9.577584e-02,
-8.163877e-03,
1.952073e-03,
1.117417e-02,
-6.737489e-02,
2.112945e-02,
-1.370370e-02,
-2.480016e-04,
-7.377504e-02,
-2.487385e-02,
-1.687284e-01,
-7.299576e-02,
-9.261418e-02,
-1.174918e-02,
6.825201e-02,
4.691604e-02,
-5.438605e-02,
1.180644e-03,
1.257641e-02,
2.547984e-02,
2.209369e-02,
-4.536498e-02,
-2.884181e-02,
2.817292e-02,
2.092049e-02,
7.604207e-03,
7.667599e-02,
8.788979e-02,
-7.979807e-02,
6.585544e-02,
1.105373e-01,
6.032142e-03,
6.304801e-02,
5.310446e-02,
7.808737e-02,
5.746645e-02,
2.734840e-02,
3.394050e-02,
2.811516e-02,
7.262999e-02,
-6.390423e-02,
6.229052e-02,
6.279687e-02,
8.086282e-02,
1.147174e-01,
9.886435e-02,
4.261790e-02,
9.099843e-02,
6.778540e-02,
2.155225e-02,
9.822779e-03,
3.362134e-02,
-1.177043e-02,
-3.992858e-02,
-1.517182e-02,
1.238844e-01,
1.057251e-01,
6.978384e-02,
3.215060e-02,
-8.345817e-03,
2.684316e-02,
-2.813892e-02,
-5.691446e-02,
7.679173e-03,
-6.001629e-02,
-1.181564e-01,
-6.246248e-04,
6.893951e-02,
9.953398e-02,
1.198670e-01,
3.679873e-02,
2.500524e-02,
-2.073775e-02,
-5.403414e-02,
-4.602577e-03,
-5.425442e-02,
1.115721e-03,
-2.771700e-02,
-1.360130e-01,
2.657116e-02,
8.806699e-03,
8.148935e-02,
3.823210e-02,
-4.582329e-02,
-9.991798e-02,
-3.861048e-02,
-3.805500e-02,
-7.967061e-02,
2.305437e-02,
-3.747199e-02,
-3.753752e-02,
-9.166071e-02,
-8.843437e-02,
-9.274272e-02,
-1.049432e-01,
-7.976852e-03,
-8.944456e-02,
1.355797e-02,
5.833891e-04,
6.142010e-03,
7.214174e-03,
1.235851e-02,
4.985693e-02,
9.664990e-02,
9.421499e-02,
1.368898e-01,
1.435452e-01,
1.064547e-01,
8.840229e-02,
7.160820e-02,
-2.260041e-03,
6.336484e-02,
2.461223e-02,
3.715299e-02,
-1.716015e-02,
1.084155e-01,
9.173148e-02,
7.113593e-02,
7.894641e-03,
2.363279e-02,
1.973495e-02,
3.391516e-02,
-1.276820e-02,
-7.560181e-03,
-4.439783e-02,
1.524239e-02,
3.288181e-02,
-2.049034e-03,
-6.603485e-03,
9.770895e-03,
2.462782e-02,
2.352846e-03,
-7.598735e-02,
-9.899496e-02,
-2.419190e-02,
-8.816406e-02,
9.506266e-03,
1.946808e-02,
3.437722e-02,
8.124401e-02,
3.301512e-02,
5.296288e-02,
6.312714e-03,
-2.363198e-02,
-8.972468e-02,
-8.036970e-02,
-7.976796e-02,
-6.873221e-02,
-5.163908e-02,
-3.676808e-02,
8.167633e-02,
2.423049e-02,
6.679326e-02,
7.083560e-02,
1.135527e-02,
-9.880382e-02,
-1.279797e-01,
-9.976052e-02,
-1.397251e-01,
-2.978835e-02,
-2.080134e-02,
-2.469228e-02,
4.080710e-02,
2.441112e-02,
1.680088e-02,
1.009584e-01,
-8.367823e-03,
-3.602782e-02,
-8.445469e-02,
-2.600606e-02,
-2.706536e-02,
8.702340e-02,
-2.624350e-02,
-9.620689e-02,
1.156755e-02,
2.597251e-02,
1.467836e-02,
7.263497e-02,
1.052059e-01,
2.610257e-02,
-1.530694e-02,
-3.352417e-02,
1.054314e-02,
2.338855e-02,
-9.525621e-02,
-3.025838e-02,
2.184027e-02,
5.565681e-02,
3.271352e-02,
2.131675e-02,
1.534457e-02,
9.879412e-03,
4.577462e-02,
4.018441e-02,
-4.280257e-03,
-2.795944e-02,
-2.646740e-02,
-8.533525e-02,
-7.042200e-02,
-5.603529e-02,
-1.218347e-02,
4.528540e-02,
-1.164008e-02,
7.416004e-02,
3.188320e-02,
7.217299e-03,
1.364301e-02,
-4.372471e-03,
-8.912007e-03,
-4.442443e-02,
-8.459280e-02,
-4.027360e-02,
6.073634e-02,
3.695664e-02,
6.591012e-02,
3.764990e-02,
5.723323e-02,
3.923678e-02,
2.137593e-02,
-3.458505e-02,
-3.028873e-02,
-1.576628e-02,
-2.347448e-02,
-3.933805e-02,
-2.059413e-02,
-1.508229e-02,
-3.941749e-03,
-1.903906e-02,
-1.731324e-02,
2.725357e-03,
-2.178551e-02,
-4.116518e-02,
-4.243287e-02,
-1.319490e-02,
-4.059019e-02,
-6.202917e-02,
-4.070341e-02,
-7.533205e-02,
-6.582878e-02,
-2.626501e-02,
-1.063614e-02,
-2.772377e-02,
-4.027760e-02,
-1.348433e-02,
-2.616510e-02,
3.514300e-02,
1.255727e-01,
8.736509e-02,
1.291072e-02,
4.725099e-02,
-1.817787e-02,
4.336676e-02,
7.221454e-02,
1.783958e-01,
1.260487e-01,
3.608253e-02,
-2.485805e-02,
-1.280784e-02,
-2.030328e-02,
6.035891e-03,
-9.263262e-02,
-5.980360e-02,
-4.245196e-02,
-3.939724e-02,
-1.002808e-01,
-5.370568e-02,
3.063277e-02,
-4.241118e-02,
6.561757e-04,
-2.522973e-02,
-2.870972e-02,
-7.777570e-02,
-9.127213e-02,
-1.144912e-01,
-1.227368e-01,
-5.574851e-02,
-4.799879e-02,
-3.846066e-02,
-7.251754e-02,
-4.183163e-02,
-4.675535e-02,
-5.721936e-02,
-8.087306e-03,
-3.498633e-02,
-4.771560e-02,
-1.336561e-01,
-1.093269e-01,
-7.259289e-02,
-5.370855e-02,
3.357672e-02,
-2.074958e-02,
-1.210980e-01,
-1.028513e-01,
-3.155824e-02,
-3.493331e-02,
-8.922229e-02,
-4.488070e-02,
-9.438921e-02,
-6.649102e-02,
-1.441727e-02,
2.150779e-02,
5.540442e-02,
8.857483e-03,
-5.987651e-02,
-5.261974e-02,
9.192725e-03,
-6.349972e-02,
-4.184728e-03,
-9.522951e-02,
-7.357886e-02,
6.565773e-02,
6.746470e-02,
3.848285e-02,
8.058055e-02,
6.833932e-02,
3.893775e-02,
-8.261288e-02,
-6.590004e-02,
-7.990492e-02,
-5.473850e-02,
-8.409952e-02,
-1.425028e-03,
7.765725e-02,
4.605810e-02,
6.651621e-02,
6.635804e-02,
5.239742e-02,
6.972190e-03,
-3.233795e-02,
-4.641872e-02,
-3.314816e-02,
-7.468507e-02,
-9.163596e-02,
1.897327e-02,
8.994184e-02,
7.617052e-02,
5.825621e-02,
2.645960e-02,
-2.264965e-02,
-4.137059e-02,
-1.210786e-01,
-1.119283e-01,
-6.159084e-02,
-6.060925e-02,
2.317537e-03,
-3.425760e-03,
1.425346e-02,
6.181244e-02,
2.992714e-02,
-4.183564e-02,
-9.733983e-03,
-7.132228e-02,
-1.062669e-01,
-6.996924e-02,
1.152780e-02,
-6.386220e-02,
3.206436e-02,
3.556194e-02,
-3.413016e-02,
6.400326e-02,
3.960934e-02,
1.984793e-02,
-7.946832e-02,
-3.873711e-02,
-3.718468e-02,
-8.182716e-02,
-1.326918e-01,
2.015206e-03,
8.909635e-03,
5.702368e-02,
8.972532e-02,
1.142242e-01,
6.695862e-02,
-3.811431e-02,
-1.068459e-01,
-9.269692e-02,
-4.451412e-02,
-2.401093e-02,
-6.768433e-02,
-5.757728e-02,
-5.039724e-02,
2.078565e-03,
6.541742e-02,
4.248982e-02,
-3.721280e-02,
-5.248893e-02,
5.775927e-03,
-2.195105e-02,
2.833341e-02,
-2.686925e-02,
-4.369655e-02,
-5.394943e-02,
-5.805474e-02,
-2.242455e-02,
2.801483e-02,
7.029591e-02,
1.153713e-01,
1.238978e-02,
-2.442027e-02,
-3.331980e-02,
1.201580e-02,
-8.261898e-03,
-5.405255e-02,
-1.184971e-01,
-8.856456e-02,
-2.421087e-02,
-8.352491e-03,
-1.924410e-02,
3.210795e-02,
5.259090e-03,
-3.509588e-02,
-1.485114e-02,
-4.617591e-02,
-5.123594e-02,
-6.791337e-02,
-1.066540e-01,
-1.194689e-01,
-5.877262e-02,
-1.275395e-02,
7.641435e-02,
1.246071e-01,
1.038041e-01,
7.014202e-02,
5.569545e-02,
3.039022e-03,
-7.334045e-02,
-1.146026e-01,
-1.687161e-01,
-7.360362e-02,
-7.094061e-02,
2.215851e-02,
1.793276e-01,
1.573327e-01,
1.414935e-01,
1.713126e-01,
1.232864e-01,
1.905458e-02,
-5.788563e-02,
-7.501085e-02,
-1.196696e-01,
-1.701548e-01,
-1.776756e-01,
-3.729166e-02,
1.613055e-01,
1.544035e-01,
1.337351e-01,
-2.463849e-02,
-7.872751e-02,
2.234733e-02,
-1.002970e-01,
-1.513856e-01,
-1.669519e-01,
-2.135710e-01,
-2.289629e-01,
7.350444e-02,
6.917363e-02,
9.638392e-02,
6.279782e-03,
-2.855880e-02,
-1.275856e-01,
7.454520e-03,
-1.103205e-01,
-2.213675e-01,
-1.774204e-01,
-2.500854e-01,
-1.456793e-01,
3.439884e-02,
4.811680e-02,
3.122173e-03,
-1.336870e-02,
-2.386110e-02,
-5.464497e-02,
-1.499710e-02,
-5.143010e-02,
-1.654862e-01,
-1.943904e-01,
-1.514788e-01,
-1.263286e-01,
-7.547701e-02,
2.695108e-02,
4.389637e-02,
7.496475e-02,
5.862009e-03,
-4.991529e-02,
-2.932913e-02,
-3.232570e-02,
-6.369264e-02,
-6.752080e-02,
-6.135826e-02,
-8.309568e-02,
-2.332328e-02,
3.754584e-02,
3.312705e-02,
3.643148e-02,
3.271248e-03,
6.683483e-02,
3.327179e-02,
3.384621e-03,
-5.436822e-02,
-6.766733e-02,
-1.046404e-02,
-7.755155e-03,
6.558199e-02,
6.556991e-02,
6.242752e-02,
3.945286e-02,
6.429017e-02,
8.361638e-02,
1.303023e-02,
-7.250812e-03,
-1.671574e-02,
-3.937551e-03,
4.329559e-02,
3.036692e-02,
7.712415e-02,
7.744918e-02,
1.220239e-02,
2.040795e-02,
-2.045719e-03,
-2.210739e-02,
2.292195e-03,
-9.949438e-03,
1.280367e-02,
1.905660e-02,
-1.429279e-02,
-2.484131e-02,
1.687908e-02,
-1.294171e-02,
2.557538e-03,
-1.044036e-02,
-1.661902e-02,
-1.089603e-02,
2.907872e-02,
7.217158e-02,
8.767149e-02,
2.364273e-02,
8.762745e-02,
6.049676e-02,
2.245718e-02,
-3.708582e-02,
4.171927e-02,
1.957266e-02,
9.322731e-02,
6.723698e-04,
-8.719318e-03,
-1.472920e-02,
6.795010e-02,
-2.930005e-02,
-5.927251e-02,
-2.175105e-02,
4.438822e-03,
-1.647045e-02,
-3.336540e-02,
-1.166460e-02,
-4.674852e-02,
-4.839062e-02,
1.788265e-02,
-3.337063e-02,
-2.954433e-02,
-1.842624e-02,
-6.529795e-02,
-4.014675e-02,
-8.579749e-03,
-3.798138e-02,
-6.207260e-02,
-3.597318e-02,
-7.325760e-03,
-3.991940e-02,
-4.821843e-02,
-3.386270e-02,
6.518855e-02,
5.049235e-02,
3.957324e-04,
-6.557444e-03,
5.979492e-02,
-1.084582e-02,
1.583130e-03,
-1.563471e-02,
-5.791857e-02,
-1.033894e-01,
-6.088493e-02,
-4.689220e-02,
8.639758e-02,
2.065329e-02,
-1.909726e-02,
-7.061860e-03,
1.243348e-02,
2.456776e-02,
3.665228e-02,
-1.786170e-02,
3.728056e-02,
3.858952e-02,
-2.992000e-02,
-2.331942e-02,
-1.213804e-03,
1.549056e-02,
1.311340e-02,
4.026063e-03,
6.417227e-02,
9.997293e-02,
-3.220801e-02,
-3.394893e-04,
4.817492e-02,
2.277191e-02,
-7.631996e-02,
-6.130176e-02,
-1.202943e-03,
-3.482149e-02,
3.257452e-02,
2.203948e-02,
6.949770e-02,
4.400586e-02,
8.188785e-02,
2.766844e-02,
-1.736991e-03,
-6.803351e-02,
-1.991362e-02,
-1.959991e-03,
-3.200083e-02,
-6.047614e-04,
-2.516052e-02,
-9.281280e-04,
3.448142e-02,
-1.670775e-03,
1.631589e-02,
2.858094e-02,
5.418999e-02,
1.738758e-02,
-4.861625e-02,
-7.306965e-02,
-4.269321e-02,
-3.150959e-02,
-1.417415e-02,
3.973057e-02,
1.665087e-02,
7.108893e-02,
5.087106e-02,
2.001562e-02,
3.918055e-02,
2.509338e-02,
-2.539526e-02,
-9.568223e-02,
-9.160742e-02,
-4.578231e-02,
-6.601118e-02,
-2.127295e-03,
2.108696e-02,
1.633494e-02,
-6.171165e-03,
1.103839e-01,
-1.391701e-02,
-4.213826e-02,
-8.164187e-02,
-8.801097e-02,
-7.251534e-02,
-1.083503e-01,
-3.448616e-02,
-8.864559e-03,
-1.510372e-02,
2.574668e-02,
5.115169e-02,
-2.228277e-02,
-4.037277e-02,
2.219899e-04,
8.996105e-03,
-6.387375e-02,
-5.248075e-02,
-1.253925e-01,
-1.273948e-01,
-1.503718e-01,
-1.050137e-01,
-8.785060e-02,
-1.096106e-01,
-3.610831e-02,
1.704673e-04,
1.724915e-02,
-1.777172e-02,
-5.804352e-02,
-4.233696e-03,
-9.192865e-02,
-8.566996e-02,
-7.192072e-02,
-5.917977e-02,
-1.250047e-01,
-5.467303e-02,
-6.315149e-02,
-1.837435e-02,
-7.234198e-02,
-6.674057e-03,
-5.025613e-03,
5.984552e-02,
1.006127e-01,
6.643030e-02,
9.274044e-04,
-9.267601e-02,
-3.001470e-02,
-7.532515e-02,
-5.168911e-02,
-7.758708e-02,
-7.840971e-02,
4.386563e-02,
1.018843e-01,
1.648156e-01,
7.190491e-02,
8.225019e-02,
-4.630851e-02,
-4.889596e-02,
-2.784916e-02,
-5.906627e-02,
-2.206942e-02,
-2.157745e-03,
-9.456623e-02,
4.841093e-02,
8.473723e-02,
5.722363e-02,
5.704893e-02,
1.519574e-02,
-1.098738e-01,
-3.299836e-02,
3.279817e-02,
-1.479144e-02,
-7.988247e-02,
-8.980385e-02,
-1.183842e-01,
4.872265e-02,
7.031780e-03,
-1.447941e-02,
-5.980301e-02,
-9.186971e-02,
-1.389760e-01,
4.375034e-02,
2.305456e-02,
8.673022e-04,
-6.071835e-02,
-7.777980e-02,
-1.718929e-01,
3.684079e-02,
-1.703347e-02,
-8.974801e-02,
-9.880012e-02,
-7.502171e-02,
-1.988085e-01,
-3.574979e-02,
2.353576e-02,
-1.046601e-02,
-2.428805e-02,
-4.462804e-02,
-5.903199e-02,
-1.736804e-02,
-7.814310e-02,
-4.300226e-02,
-5.408955e-02,
-3.321297e-02,
-1.323544e-01,
-3.981523e-02,
-1.196432e-02,
2.740948e-02,
1.075891e-02,
-1.096185e-02,
-1.541477e-01,
-4.363615e-02,
-6.357107e-02,
-1.135052e-02,
2.437363e-02,
-7.104767e-02,
-8.949102e-02,
-1.621341e-02,
-1.468107e-02,
-4.148044e-02,
-2.154295e-02,
-1.132479e-01,
-5.949069e-02,
-4.265170e-02,
-1.262312e-02,
-4.654028e-02,
-3.335736e-04,
-5.438365e-02,
-5.680706e-02,
-6.156823e-03,
2.546147e-03,
-3.923065e-02,
-6.544887e-02,
-1.770247e-01,
-8.711591e-02,
-7.711046e-02,
-2.282651e-02,
-9.378240e-02,
-1.224377e-01,
-9.652777e-02,
8.757171e-04,
-2.037375e-02,
-3.655953e-02,
-8.084913e-02,
-3.303969e-02,
-9.229485e-02,
-5.942400e-02,
-8.987609e-02,
-6.442241e-02,
-1.302277e-02,
-9.046557e-02,
-4.994533e-03,
-9.669186e-03,
4.158548e-02,
3.404934e-02,
2.393506e-02,
-1.196624e-02,
-9.456906e-02,
-2.379409e-02,
-3.547224e-02,
2.116049e-03,
7.649554e-02,
8.030593e-02,
4.776341e-02,
4.187945e-02,
4.701089e-02,
4.656391e-02,
1.886546e-02,
-3.581650e-02,
-3.784980e-02,
-6.579147e-02,
-2.208840e-02,
-5.511537e-02,
-5.567054e-02,
-9.896906e-02,
-5.793200e-02,
-1.143439e-01,
-6.276590e-02,
-4.909837e-02,
-9.103215e-02,
-7.304451e-02,
-7.057150e-02,
-1.571260e-02,
-1.945385e-02,
7.920618e-03,
-3.237865e-02,
-8.062853e-02,
-8.656169e-02,
-7.942429e-02,
-7.287900e-02,
-2.935621e-02,
3.661601e-02,
-5.387258e-02,
-9.407895e-02,
-9.848470e-02,
-9.307012e-03,
-5.403294e-02,
-8.451041e-02,
-8.281126e-02,
-7.532872e-02,
-5.910862e-02,
-4.769306e-02,
-6.467627e-02,
4.254267e-02,
-4.660514e-03,
-7.186710e-03,
-1.714889e-02,
-1.545067e-02,
-5.916674e-02,
-9.552629e-02,
-9.889458e-02,
-3.944577e-02,
-1.133675e-02,
3.692644e-02,
7.163712e-02,
4.906013e-02,
5.657207e-02,
4.645591e-02,
-6.218464e-03,
-2.834495e-03,
1.475623e-02,
-7.012665e-02,
-1.801577e-02,
-4.951476e-02,
4.383604e-03,
5.019052e-02,
1.245061e-01,
1.077369e-01,
1.993200e-02,
5.283339e-02,
-8.736627e-02,
1.104228e-01,
-1.795791e-02,
6.829198e-02,
3.379786e-02,
-1.648122e-02,
-1.342671e-01,
-2.317904e-02,
2.709198e-02,
4.204423e-02,
3.766429e-02,
5.068604e-02,
-6.856594e-02,
7.091740e-02,
7.370412e-02,
8.825370e-02,
1.291452e-01,
-3.651322e-02,
-9.662866e-02,
-3.899261e-02,
-4.642963e-04,
3.335662e-02,
1.871189e-02,
1.047663e-02,
7.055980e-03,
1.617987e-03,
3.840100e-02,
7.340208e-02,
1.461797e-01,
7.040779e-04,
-8.292080e-02,
-1.100905e-02,
2.707822e-02,
5.439461e-02,
6.217608e-02,
-1.723707e-02,
-1.224980e-01,
-4.399789e-02,
-5.972705e-02,
-2.990715e-02,
3.423028e-02,
-8.939853e-03,
-2.610779e-02,
6.471724e-03,
4.494130e-02,
-1.945669e-02,
1.400765e-02,
-5.736336e-02,
-1.643726e-01,
-1.106939e-03,
-3.332774e-02,
2.992876e-02,
-2.099932e-02,
4.981496e-04,
-7.359210e-03,
-3.378247e-02,
-5.241171e-02,
-2.478115e-02,
-5.499157e-02,
-6.555945e-02,
-7.457340e-02,
-5.245167e-02,
-3.219656e-02,
1.117245e-01,
3.292717e-02,
2.459052e-02,
-3.938806e-02,
-4.565866e-02,
-1.109859e-03,
-3.200691e-02,
-6.700686e-02,
-6.123361e-02,
-1.078552e-01,
-3.762713e-02,
8.581665e-02,
2.277420e-02,
1.798878e-02,
4.046768e-02,
4.070968e-03,
1.790633e-02,
-3.484164e-04,
-4.381134e-03,
3.196904e-03,
-7.103250e-02,
-1.596432e-02,
-6.948722e-02,
-5.588937e-02,
-9.125927e-02,
-1.283576e-01,
-7.888547e-02,
-1.314666e-01,
-5.752895e-02,
-6.316413e-02,
-1.063928e-01,
-5.808077e-02,
-4.668851e-02,
-8.508690e-02,
-1.961987e-03,
6.586673e-02,
5.405058e-02,
-4.399768e-02,
-3.050627e-02,
-2.766286e-02,
2.133764e-02,
-7.964644e-02,
-1.452748e-01,
-3.675269e-02,
-5.481022e-02,
-5.669707e-02,
6.710236e-02,
8.424339e-02,
6.526621e-02,
4.844425e-02,
4.137782e-02,
1.754817e-02,
2.462600e-02,
2.169702e-02,
2.716912e-02,
2.213952e-02,
-2.205727e-02,
-9.119491e-02,
1.236526e-01,
6.904832e-02,
1.196500e-01,
1.233670e-01,
5.221811e-02,
6.539683e-02,
4.567548e-02,
4.946152e-02,
3.233556e-02,
-2.590908e-02,
-1.171982e-02,
-2.199053e-02,
1.215933e-01,
3.516925e-02,
1.452445e-01,
7.035345e-02,
-2.222904e-03,
5.677233e-02,
-8.748800e-03,
1.013392e-02,
3.226130e-02,
-1.210335e-03,
-4.531607e-02,
-6.909974e-02,
8.619906e-02,
3.288934e-02,
5.318391e-02,
2.315518e-03,
-4.089412e-02,
-1.164479e-01,
-6.797673e-02,
-2.490299e-02,
-3.916607e-02,
-3.856989e-03,
-1.081017e-03,
-3.205013e-02,
9.968012e-04,
-5.550157e-02,
-6.846786e-02,
-4.278945e-02,
-9.239899e-02,
-1.355997e-01,
-1.051551e-01,
-3.848474e-02,
9.521703e-02,
9.547481e-02,
4.906411e-02,
-5.960622e-02,
-9.548536e-03,
-1.566027e-01,
-6.867805e-02,
-2.945184e-02,
-1.190853e-01,
-1.370350e-01,
-2.143888e-02,
2.375998e-02,
1.025721e-01,
7.570861e-02,
-4.224537e-02,
-1.122808e-01,
-3.871758e-02,
-1.313196e-01,
-5.056665e-02,
-6.683602e-02,
-1.028364e-01,
-4.120748e-02,
-7.862477e-02,
2.555827e-02,
9.184933e-02,
7.317974e-02,
8.130979e-03,
-4.537867e-02,
-9.107523e-02,
-6.410024e-02,
-8.657595e-02,
-9.104098e-02,
-7.844856e-02,
-9.634993e-02,
-6.221797e-02,
-1.410487e-01,
-5.344747e-03,
-7.012736e-03,
-8.975662e-02,
-9.020770e-02,
-1.423430e-02,
2.580111e-02,
6.938640e-04,
-7.811093e-02,
-8.523826e-02,
-2.881677e-02,
-5.942149e-02,
-1.097450e-02,
-1.221785e-02,
-5.094822e-02,
-8.791484e-02,
-9.205046e-02,
6.140638e-02,
3.364152e-02,
-4.578059e-02,
-1.662199e-01,
-1.015753e-01,
-4.382193e-02,
-8.162946e-02,
-9.327382e-02,
-9.098447e-02,
-5.428306e-02,
-3.641818e-02,
-8.956538e-02,
3.813791e-03,
2.998286e-02,
5.768595e-02,
4.879356e-02,
5.291067e-02,
7.793944e-02,
3.068626e-02,
3.662370e-02,
1.953141e-03,
7.113843e-02,
6.869305e-02,
-1.130096e-04,
3.081747e-02,
-2.471013e-03,
5.072344e-02,
2.441438e-02,
3.239640e-02,
-2.211178e-02,
-1.092420e-01,
-7.225282e-02,
3.881676e-02,
1.100732e-01,
6.727480e-02,
2.642138e-02,
2.439693e-02,
4.034358e-02,
1.303456e-01,
8.600720e-02,
5.869543e-02,
2.687770e-02,
3.515692e-02,
-1.776278e-02,
-4.629352e-02,
-9.002638e-02,
3.304094e-02,
5.406655e-02,
5.353976e-02,
-3.099073e-02,
4.182342e-02,
9.121546e-02,
3.898508e-02,
6.524479e-02,
8.487235e-02,
1.848822e-02,
-1.593228e-02,
-7.326816e-02,
-7.720380e-02,
6.960695e-02,
6.166092e-02,
3.302670e-02,
1.114063e-01,
4.327729e-02,
7.269222e-03,
5.279902e-02,
4.435467e-02,
-9.520191e-03,
-1.000832e-01,
-6.845967e-02,
1.508783e-02,
7.454432e-02,
7.755259e-02,
2.206820e-02,
5.825058e-02,
3.358688e-02,
4.719592e-02,
9.851161e-02,
-5.241545e-02,
-1.476214e-02,
2.551606e-02,
-2.828126e-02,
4.511129e-03,
4.593886e-02,
8.566439e-02,
3.338738e-02,
2.741889e-02,
8.303411e-02,
1.023417e-01,
-7.308818e-02,
-7.256683e-02,
6.122977e-02,
-4.519386e-03,
-2.106105e-02,
-1.161843e-02,
8.514321e-02,
7.856268e-02,
3.109021e-02,
1.603432e-02,
7.689065e-02,
4.487329e-02,
-1.301507e-01,
-8.251568e-02,
1.935679e-02,
5.964537e-02,
7.987529e-02,
6.214486e-03,
-1.818260e-02,
1.528111e-02,
-1.290171e-03,
-6.900640e-03,
5.332172e-02,
-8.965645e-03,
-1.132454e-02,
-4.911071e-02,
1.130838e-02,
-3.140422e-03,
9.875938e-02,
5.564303e-02,
5.731227e-02,
9.256151e-02,
1.357530e-03,
-3.729521e-02,
-2.734517e-02,
-8.351296e-02,
-6.800240e-02,
-3.047834e-02,
-1.172244e-01,
-4.793263e-03,
1.423247e-02,
-1.065221e-02,
5.362703e-02,
2.492079e-02,
-4.271665e-02,
-1.357260e-01,
-1.067659e-01,
-1.089573e-01,
-1.039992e-01,
-1.012877e-01,
-8.587348e-02,
-6.800306e-02,
-1.694149e-02,
4.417123e-02,
2.463515e-02,
4.283985e-03,
8.590699e-02,
3.246639e-03,
-7.404808e-02,
-8.101767e-02,
-5.840139e-02,
-6.437081e-02,
-7.441686e-02,
-2.106354e-02,
-2.863711e-02,
-6.053043e-03,
-2.068635e-02,
-1.158002e-02,
-1.938297e-02,
-9.779443e-02,
-6.846846e-02,
-8.235046e-02,
-8.906081e-02,
-8.777840e-02,
-6.751480e-02,
-1.164987e-01,
-4.772430e-02,
-7.027181e-02,
-3.861763e-02,
1.581945e-02,
1.260737e-03,
3.258983e-02,
2.657221e-02,
2.293135e-03,
3.022439e-02,
3.382854e-02,
5.086386e-02,
-8.344755e-03,
-5.906022e-02,
-6.711853e-02,
-8.800567e-02,
4.705251e-02,
1.859937e-02,
1.832830e-02,
2.265036e-02,
-2.147483e-02,
-3.396698e-02,
-2.099316e-02,
2.969133e-03,
8.231226e-02,
3.906180e-02,
7.403378e-02,
-3.563515e-02,
7.200325e-02,
4.754568e-03,
5.423919e-03,
-4.163479e-02,
-1.523556e-02,
-4.990339e-02,
-1.794672e-02,
1.035036e-01,
5.580716e-02,
7.438397e-02,
9.326690e-02,
2.242968e-02,
7.761519e-02,
-1.398601e-04,
-7.117898e-02,
-1.873848e-02,
-1.623881e-01,
-1.333298e-01,
-2.668616e-02,
5.783052e-02,
4.330794e-03,
3.187965e-02,
5.550193e-02,
-5.698969e-02,
1.059575e-01,
1.071254e-02,
-7.349979e-04,
2.441030e-02,
-1.027521e-01,
-1.626030e-01,
-6.905498e-02,
3.191742e-02,
3.735815e-02,
-5.858669e-03,
-6.928815e-02,
-7.283562e-02,
3.239129e-02,
1.160204e-02,
1.988065e-02,
1.139825e-01,
-1.016307e-02,
-9.910811e-02,
-3.191749e-02,
3.311450e-03,
6.457869e-02,
4.052705e-02,
-3.779428e-02,
-1.107594e-01,
1.973733e-02,
3.875154e-02,
1.156317e-01,
1.913510e-01,
-3.103023e-02,
-6.635551e-02,
-3.039329e-02,
-2.186328e-02,
6.488047e-02,
1.212689e-01,
-2.701176e-02,
-7.107277e-02,
-1.133582e-02,
-6.901993e-03,
5.998221e-02,
8.946012e-02,
-3.073795e-02,
1.695432e-03,
-2.889664e-02,
-6.220369e-02,
-3.085545e-02,
3.766602e-02,
-6.431156e-02,
-5.324873e-02,
-4.801823e-02,
-7.858122e-02,
2.664903e-02,
-2.036016e-02,
-1.988566e-03,
3.251036e-02,
-1.030271e-01,
-4.953377e-02,
-1.522709e-01,
-1.324558e-01,
-7.279918e-02,
-1.023153e-01,
-2.404127e-02,
2.739519e-02,
6.761315e-02,
3.710289e-02,
4.547932e-03,
-3.935438e-02,
-1.277612e-01,
-1.009331e-01,
-1.583348e-01,
-1.601613e-01,
-1.413982e-01,
-1.051344e-01,
6.484626e-02,
4.800497e-02,
5.528014e-02,
3.597112e-02,
4.571114e-02,
1.947487e-02,
-2.173722e-02,
-3.021007e-02,
-4.734484e-02,
-7.384983e-02,
-4.658132e-02,
-1.221232e-03,
4.824990e-02,
3.659032e-02,
3.384846e-02,
4.467507e-02,
-4.366909e-04,
-2.025334e-02,
4.963154e-02,
7.379233e-02,
2.187523e-02,
7.040619e-02,
5.624207e-02,
3.854752e-02,
6.719086e-02,
-3.977055e-02,
6.576010e-03,
-2.447866e-02,
-4.582058e-02,
1.328053e-02,
1.011598e-02,
6.267483e-02,
3.668766e-02,
8.166827e-02,
6.063434e-02,
4.530979e-02,
3.535856e-02,
-4.324923e-02,
-7.825386e-03,
2.348705e-02,
-1.499181e-02,
3.472558e-02,
4.901189e-02,
5.368422e-02,
3.916275e-02,
4.589624e-02,
5.886349e-02,
1.072308e-01,
8.854743e-02,
-2.312718e-02,
5.813773e-02,
6.073911e-02,
9.059983e-02,
1.372057e-01,
1.284529e-01,
3.580004e-02,
6.034169e-02,
5.840068e-03,
5.538328e-02,
9.311651e-02,
2.254789e-02,
6.534354e-02,
6.099282e-02,
1.142167e-01,
1.565568e-01,
2.124150e-01,
1.268540e-01,
-2.648563e-02,
-3.188305e-02,
-6.031902e-02,
2.424550e-02,
1.008312e-01,
6.182915e-02,
7.278186e-02,
4.617238e-02,
9.191425e-02,
1.052400e-01,
1.377309e-01,
8.789463e-02,
-3.680786e-03,
-5.017808e-02,
-3.563548e-02,
-1.010000e-02,
6.543088e-02,
8.373561e-02,
1.645448e-02,
-4.086168e-02,
2.417398e-02,
8.973791e-02,
1.197260e-01,
7.137479e-02,
1.327986e-02,
6.967945e-02,
-1.411287e-02,
5.442976e-03,
4.425831e-02,
3.179369e-03,
-5.099911e-02,
-5.371797e-02,
-1.649593e-02,
5.992975e-02,
1.190949e-01,
4.688421e-02,
1.061478e-01,
6.682693e-02,
2.583529e-02,
7.985166e-02,
1.091562e-01,
-3.610262e-02,
4.133666e-02,
5.886120e-03,
-1.069919e-02,
4.756681e-02,
1.086721e-01,
4.478658e-02,
1.111261e-01,
5.194261e-02,
6.215028e-02,
3.533290e-02,
3.250412e-02,
7.304090e-03,
3.132935e-02,
8.544298e-02,
6.312802e-02,
6.166742e-02,
6.354967e-02,
1.147799e-01,
2.443987e-02,
-1.344451e-02,
2.357193e-02,
4.378911e-02,
-1.914687e-02,
5.110364e-02,
3.009876e-02,
4.931460e-02,
2.242509e-02,
5.451085e-02,
9.530511e-02,
1.058753e-02,
-2.274522e-02,
-2.226179e-02,
-1.011794e-02,
3.918710e-03,
3.374730e-03,
5.046865e-02,
-3.215727e-03,
3.577303e-02,
2.016407e-02,
1.240316e-02,
-1.380149e-02,
1.494604e-03,
3.130018e-02,
-2.310015e-02,
1.497725e-02,
4.626904e-02,
5.113959e-02,
6.136861e-02,
7.406647e-02,
9.556517e-02,
6.143700e-03,
7.319638e-03,
4.906936e-02,
5.972929e-02,
6.624892e-02,
7.441648e-02,
7.234073e-05,
3.557764e-02,
6.912623e-02,
6.357998e-02,
5.169218e-03,
7.229605e-02,
9.760510e-02,
1.226514e-02,
6.120978e-02,
3.148620e-02,
5.269580e-02,
3.858737e-02,
3.125795e-02,
3.022873e-02,
4.916956e-02,
-4.995040e-03,
8.580747e-02,
7.079260e-02,
7.785364e-02,
4.198668e-02,
4.305778e-02,
5.635764e-02,
3.623758e-02,
1.813707e-02,
4.094373e-02,
-2.152752e-02,
2.920310e-02,
6.363440e-02,
5.905035e-02,
5.309285e-02,
2.897664e-02,
4.883573e-02,
7.673564e-03,
3.109346e-02,
6.809671e-03,
4.593601e-02,
1.146665e-02,
1.435280e-02,
-2.412511e-02,
4.907491e-02,
5.293917e-02,
-6.790851e-02,
1.402930e-02,
3.579302e-02,
-4.072656e-02,
2.208465e-02,
2.175984e-02,
8.026666e-02,
9.724169e-02,
5.550925e-03,
6.827244e-02,
2.478057e-02,
-1.291478e-02,
-3.833134e-02,
-9.438745e-02,
-5.273276e-02,
6.567690e-03,
2.968244e-02,
5.557614e-02,
2.159668e-02,
-7.625532e-03,
-3.155744e-02,
1.808056e-02,
6.151506e-02,
8.548006e-02,
4.224176e-02,
2.349011e-02,
1.542519e-02,
2.953099e-02,
2.614661e-02,
1.632191e-02,
-4.469366e-02,
-6.470710e-02,
-6.387260e-02,
-1.870981e-02,
4.178344e-02,
1.513939e-02,
1.480755e-01,
1.236129e-01,
1.477649e-01,
6.440961e-02,
2.523813e-02,
-1.626063e-02,
-6.844242e-02,
-1.135992e-03,
-1.028931e-01,
-3.680643e-02,
5.715651e-02,
-3.189635e-03,
8.376227e-02,
9.311638e-02,
1.381726e-01,
5.552718e-02,
-3.794626e-02,
-2.426158e-02,
-3.115080e-02,
-2.297549e-02,
5.486386e-03,
4.145019e-02,
2.124450e-02,
1.603247e-02,
1.267226e-02,
1.675609e-02,
1.519756e-02,
-1.234429e-02,
1.802481e-02,
1.160621e-02,
8.301284e-03,
-1.171193e-02,
2.249448e-02,
1.294531e-02,
1.344547e-02,
-9.541566e-03,
-7.207825e-02,
-1.109790e-01,
-7.571021e-02,
4.021159e-02,
5.784804e-02,
2.223072e-02,
1.578063e-02,
1.791325e-02,
3.775824e-02,
4.255460e-02,
5.503224e-02,
-3.030548e-02,
-7.147367e-02,
-9.434205e-02,
4.517582e-03,
1.668872e-02,
6.033599e-02,
2.394769e-02,
1.693160e-02,
1.232772e-02,
2.196214e-02,
2.437736e-02,
5.402448e-02,
5.014366e-02,
1.711294e-02,
5.489496e-02,
1.090975e-02,
-2.037284e-02,
-2.989716e-02,
1.836821e-02,
3.883478e-02,
3.079133e-04,
3.562269e-02,
1.803163e-02,
3.046018e-03,
1.915695e-02,
4.538340e-03,
-1.457297e-02,
-4.307856e-03,
2.520445e-02,
3.478726e-02,
2.536616e-02,
5.127340e-03,
-1.143598e-02,
-3.180055e-02,
6.607543e-02,
3.138431e-02,
-6.729961e-02,
-4.255925e-02,
-6.002370e-02,
1.068223e-03,
9.024553e-03,
6.856983e-02,
1.054271e-02,
7.880042e-02,
4.335937e-02,
3.963993e-02,
-2.349945e-03,
3.716123e-03,
1.814930e-02,
4.909340e-02,
2.193025e-02,
-4.898387e-03,
1.904896e-02,
5.052014e-02,
2.395009e-02,
2.978980e-02,
3.213846e-02,
2.774958e-02,
7.377771e-02,
1.285585e-02,
2.263393e-02,
5.470799e-03,
2.492137e-02,
5.233638e-02,
6.494570e-02,
4.232443e-02,
7.507068e-03,
4.141964e-02,
3.631048e-02,
7.271364e-02,
8.390934e-02,
5.978982e-02,
-2.392749e-03,
7.921373e-02,
6.766426e-02,
1.203363e-01,
4.101368e-02,
7.083950e-02,
2.774539e-02,
2.522302e-03,
-2.718892e-02,
-6.476975e-02,
5.679810e-03,
4.243731e-02,
9.251063e-02,
5.882956e-02,
8.255407e-02,
7.804083e-02,
8.516685e-02,
-2.846262e-02,
-2.617875e-02,
1.169482e-02,
-2.313995e-02,
4.429746e-03,
-7.492150e-02,
-8.349820e-03,
-8.705336e-03,
-4.057183e-04,
5.450136e-03,
1.359447e-02,
-3.274613e-02,
3.724743e-02,
7.030950e-02,
5.316533e-02,
4.566902e-02,
2.891164e-02,
3.839133e-02,
3.246460e-02,
-1.142866e-02,
-6.377182e-03,
-8.616738e-02,
-9.829754e-02,
-5.491775e-02,
-2.883423e-03,
6.291900e-02,
7.033676e-03,
5.307396e-02,
1.410490e-02,
-5.851340e-02,
-3.070331e-02,
-3.559398e-02,
-4.559605e-02,
-1.033353e-01,
-5.969308e-02,
-1.603362e-02,
4.549104e-02,
6.510742e-02,
-1.002747e-02,
-2.824151e-02,
-4.574255e-02,
-1.861382e-02,
-1.890547e-02,
-9.462302e-03,
2.689570e-02,
2.070077e-03,
3.702935e-02,
2.133185e-02,
-4.562327e-03,
-3.906034e-02,
9.091371e-03,
-6.639954e-02,
-5.310564e-02,
7.238871e-03,
-2.746892e-02,
-2.892707e-02,
-3.619916e-02,
5.556767e-02,
5.741456e-02,
8.177467e-02,
-7.624984e-04,
-1.929683e-02,
-2.216916e-02,
-2.143229e-02,
-7.778611e-03,
6.244367e-02,
-6.699615e-02,
-4.734477e-02,
-8.525535e-02,
-4.734699e-02,
-6.374630e-02,
-3.685233e-02,
-5.921977e-03,
3.553303e-02,
5.779742e-03,
-1.581597e-02,
-3.252975e-02,
-7.175148e-02,
-7.341501e-02,
-8.480057e-02,
-4.274045e-02,
-7.855867e-02,
1.467159e-02,
-4.656469e-03,
1.107645e-02,
-4.629429e-03,
7.646410e-03,
-1.649730e-03,
9.014197e-02,
-3.775864e-02,
-6.481317e-02,
-2.828543e-02,
-3.050322e-02,
-7.100733e-02,
-3.113701e-02,
-1.460787e-02,
6.057008e-03,
-3.700322e-02,
-1.998792e-02,
1.103875e-02,
7.813691e-02,
-5.079624e-02,
-5.669007e-02,
-5.596819e-02,
-2.658263e-02,
-2.490913e-02,
-3.854560e-02,
-3.636938e-02,
7.935473e-03,
3.875380e-02,
1.683714e-02,
3.613397e-04,
3.980130e-02,
-4.813677e-02,
-9.943408e-02,
-4.897677e-02,
-1.116734e-01,
-7.777764e-02,
-2.122006e-03,
1.715768e-02,
-6.254663e-02,
5.859676e-02,
4.975350e-02,
5.654834e-02,
2.428202e-02,
-1.349031e-01,
-2.696153e-02,
-1.315607e-03,
3.333188e-03,
-4.363430e-02,
-1.816811e-02,
-2.970200e-02,
-3.319177e-02,
1.489484e-02,
4.701362e-02,
1.284978e-02,
3.438897e-02,
-6.347983e-02,
-8.796995e-02,
6.552696e-03,
-3.908814e-02,
-6.046546e-02,
-2.216305e-02,
2.397051e-03,
-8.939029e-02,
6.819180e-02,
9.496854e-02,
8.748872e-02,
9.204262e-02,
-2.318176e-02,
-7.258905e-02,
-8.150989e-03,
-1.149390e-01,
-4.616098e-02,
-2.107200e-02,
-1.131968e-01,
-3.818528e-02,
3.840031e-02,
1.086128e-01,
2.028400e-02,
1.308517e-02,
-5.068909e-02,
-2.818684e-02,
-9.411348e-02,
-7.941540e-02,
-9.535321e-02,
-9.199496e-02,
-6.568840e-02,
-2.140949e-02,
-1.516636e-02,
-6.546360e-03,
-9.748685e-02,
-6.336601e-02,
-5.857047e-02,
-8.062723e-02,
-1.188041e-01,
-1.549774e-01,
-7.791125e-02,
-9.992545e-02,
-2.413907e-02,
2.716583e-02,
-6.969234e-03,
-5.040436e-02,
-1.229354e-01,
-2.312221e-02,
-3.683368e-03,
-8.214557e-02,
-8.708898e-02,
-3.370826e-02,
3.503984e-03,
1.940822e-03,
5.808902e-02,
4.396345e-02,
1.605817e-02,
-6.284880e-02,
-6.877258e-02,
-9.157420e-02,
-9.881788e-02,
-8.877897e-02,
-8.023699e-02,
-2.800464e-03,
-2.798996e-02,
1.744843e-02,
5.101969e-02,
5.656762e-02,
-4.722543e-03,
-2.768271e-02,
1.199268e-03,
1.045587e-02,
-8.695100e-02,
3.939802e-02,
5.388159e-03,
3.238480e-02,
2.043264e-03,
3.926482e-02,
-2.362008e-02,
2.188943e-02,
2.078373e-02,
-3.050373e-02,
5.785810e-02,
-3.172409e-02,
-4.018974e-02,
1.848027e-02,
-3.258072e-02,
-1.138061e-02,
1.697584e-02,
5.559198e-02,
7.274681e-02,
5.819795e-02,
7.350672e-02,
3.420473e-02,
-4.053323e-03,
-5.313952e-02,
9.033696e-03,
-1.260228e-02,
-4.664056e-02,
-1.534234e-02,
8.286304e-03,
1.446581e-02,
5.465693e-02,
1.615584e-02,
2.019829e-02,
2.100359e-02,
-1.830013e-02,
-2.134797e-02,
5.145601e-03,
-3.149631e-02,
2.056102e-02,
5.724186e-02,
3.748629e-04,
7.273531e-02,
5.734520e-02,
4.008159e-02,
6.400374e-02,
5.061394e-02,
2.881086e-02,
7.950126e-02,
1.045289e-02,
6.538310e-02,
-4.205782e-03,
1.678850e-02,
-2.140188e-02,
-2.320445e-02,
-2.852636e-02,
1.544355e-02,
3.161662e-02,
6.669546e-02,
1.127242e-01,
1.257848e-01,
8.161858e-03,
4.349167e-02,
-2.644425e-02,
-8.976804e-02,
-5.140302e-02,
-5.317096e-02,
-3.258003e-02,
-6.057139e-03,
6.136089e-02,
7.310725e-02,
8.451303e-02,
8.241567e-02,
1.477140e-02,
-2.071464e-02,
-2.947841e-02,
4.577575e-02,
2.683843e-02,
4.588791e-02,
7.856949e-02,
8.636484e-03,
-9.440667e-03,
3.864248e-02,
2.572628e-02,
-3.333874e-02,
2.655860e-02,
1.283102e-02,
4.705418e-02,
7.032073e-02,
1.019934e-01,
1.251370e-01,
7.261927e-02,
-1.730420e-02,
4.028441e-02,
-1.041362e-01,
-9.137383e-02,
-1.526360e-02,
2.415280e-02,
-2.760590e-02,
-9.390919e-03,
7.101586e-02,
4.570061e-02,
4.681816e-02,
2.130875e-02,
-6.133476e-02,
-2.583275e-02,
-3.658718e-02,
-6.752045e-03,
5.838624e-02,
-4.559234e-02,
-2.731610e-02,
-2.474479e-02,
2.098070e-02,
2.529731e-02,
-2.239841e-02,
2.535671e-02,
2.923456e-02,
-2.277569e-02,
-2.996347e-02,
1.645129e-02,
-1.338151e-03,
-3.190290e-02,
1.501875e-02,
-2.820606e-02,
-5.724829e-02,
-6.017155e-02,
-3.526483e-02,
2.863842e-02,
3.461429e-02,
3.874473e-02,
2.019246e-02,
2.264945e-02,
5.249128e-02,
2.550277e-02,
5.094328e-02,
-7.774520e-02,
-6.677321e-02,
-7.063739e-02,
1.456923e-03,
2.565295e-02,
7.832744e-02,
5.320503e-03,
4.861464e-02,
-2.770715e-02,
3.668870e-03,
6.081361e-02,
6.623996e-02,
5.230997e-02,
2.030491e-02,
2.900732e-02,
-9.928024e-03,
8.054608e-03,
-1.158460e-01,
-1.055770e-01,
-4.304019e-02,
1.768951e-02,
5.037066e-02,
6.801432e-02,
3.911198e-02,
7.770223e-03,
-5.673765e-02,
-1.238471e-01,
-1.721600e-01,
-1.089005e-01,
-7.374027e-02,
-2.910213e-02,
-4.866834e-02,
-2.460690e-02,
-1.080827e-01,
-7.728752e-03,
-4.090049e-02,
-9.395407e-02,
-1.291903e-01,
-1.504180e-01,
-8.629142e-02,
-5.993783e-03,
1.084903e-01,
6.488931e-02,
4.657296e-02,
7.215057e-02,
-4.986849e-03,
1.157485e-03,
-3.103594e-02,
-4.896877e-02,
-5.465013e-02,
-7.002200e-02,
1.720563e-02,
7.199737e-02,
1.050056e-01,
3.307264e-02,
4.499424e-02,
6.314859e-02,
1.186356e-01,
5.649752e-02,
-8.318011e-03,
2.693963e-02,
4.222163e-02,
5.752231e-02,
1.520114e-01,
5.768356e-02,
1.627160e-02,
-1.897654e-02,
7.377040e-02,
1.112895e-01,
3.846558e-02,
-3.561554e-02,
-1.491402e-02,
1.062475e-01,
7.958410e-02,
1.214384e-01,
8.271518e-02,
-7.383266e-02,
-6.271007e-02,
-2.230074e-02,
3.093083e-02,
5.606999e-02,
-1.178441e-02,
-3.620511e-02,
4.813766e-02,
7.097319e-02,
4.794517e-02,
8.513488e-02,
2.941962e-02,
-7.089709e-02,
-5.519098e-02,
3.170298e-02,
-2.040595e-02,
-1.952901e-03,
1.305250e-03,
-7.061059e-02,
-1.627222e-02,
5.849297e-02,
5.804287e-02,
6.023695e-02,
2.490321e-02,
-1.053213e-01,
-4.439211e-02,
-4.471229e-02,
-1.439097e-02,
-6.909490e-02,
-2.045523e-02,
-5.912075e-02,
-9.951236e-03,
4.190346e-02,
4.388458e-02,
1.565419e-02,
-9.103166e-02,
-9.021503e-02,
-2.316511e-02,
-2.187998e-02,
-6.564960e-02,
-3.789047e-02,
-1.752651e-02,
1.059751e-02,
2.236043e-02,
2.487286e-02,
2.061542e-02,
-3.614573e-02,
-6.666067e-02,
-1.462992e-02,
-1.798282e-02,
-6.345569e-02,
-1.402662e-02,
6.700283e-02,
-2.677959e-02,
1.112892e-01,
3.060952e-02,
-3.652505e-02,
-5.732450e-02,
-8.096865e-02,
-4.043606e-02,
-1.269607e-02,
-2.705810e-02,
3.841783e-02,
1.235009e-02,
8.783523e-02,
2.428947e-02,
4.299277e-02,
3.769371e-02,
3.342509e-02,
-8.792546e-03,
-2.584605e-02,
2.401885e-03,
1.926134e-02,
1.645367e-02,
7.258064e-02,
5.011887e-02,
6.778589e-02,
1.880654e-02,
7.664414e-02,
4.964357e-02,
3.239336e-02,
1.769497e-02,
1.769820e-02,
-3.883520e-02,
-4.897005e-02,
-3.931202e-02,
-7.330597e-02,
-4.317794e-02,
-2.537766e-02,
1.779867e-02,
2.226551e-02,
2.803809e-02,
5.321089e-02,
3.145909e-02,
-1.571268e-02,
-2.440556e-02,
5.761741e-02,
-3.769230e-02,
-1.476040e-01,
-1.496144e-01,
-3.707832e-02,
6.847456e-03,
-3.730473e-02,
6.705209e-02,
3.163889e-02,
6.440454e-02,
8.131668e-02,
3.721746e-02,
4.148681e-02,
3.870708e-02,
6.797326e-02,
-2.627207e-02,
-1.117766e-01,
-6.215857e-02,
-5.483265e-03,
-1.997100e-02,
-3.608913e-04,
5.466604e-02,
7.971428e-02,
1.273597e-01,
1.094637e-01,
5.434774e-02,
3.356758e-02,
-5.263536e-02,
-6.715854e-02,
-5.488098e-02,
-3.845048e-02,
2.065897e-02,
1.360467e-02,
6.765356e-02,
7.733292e-02,
6.643374e-02,
4.287481e-02,
-1.020864e-02,
1.950345e-03,
4.066809e-02,
3.519411e-02,
2.030536e-02,
3.284751e-02,
-3.005156e-02,
6.798219e-02,
-1.297705e-02,
2.395218e-03,
-2.243035e-02,
2.699438e-03,
-2.533898e-02,
2.364121e-02,
2.902119e-02,
1.553137e-02,
4.790214e-02,
-4.356038e-02,
1.903431e-02,
-5.704809e-02,
-9.997854e-02,
-1.017253e-01,
-5.067075e-02,
5.501160e-03,
1.606609e-02,
-8.468338e-03,
7.503571e-02,
5.895077e-02,
3.357356e-02,
-3.288944e-02,
-1.839753e-02,
-3.115506e-02,
-6.342021e-02,
-6.126414e-02,
-2.517067e-02,
-3.848318e-02,
8.461419e-03,
7.131724e-03,
1.308301e-02,
3.613626e-02,
6.829595e-03,
-2.536754e-02,
-3.273590e-02,
-5.906248e-02,
3.788849e-02,
-1.211371e-01,
-6.318181e-02,
-4.187471e-02,
-3.959623e-02,
-1.198290e-02,
-1.414697e-02,
-1.346399e-02,
-1.402245e-02,
-1.627990e-02,
-3.185188e-02,
-1.544785e-02,
1.132186e-03,
-1.588532e-02,
-4.317360e-02,
1.522007e-02,
-2.463894e-02,
-3.785523e-02,
-4.019139e-02,
-2.266848e-02,
-5.963713e-02,
4.006485e-02,
1.756553e-02,
1.763157e-02,
2.273628e-02,
4.309294e-02,
-4.149786e-02,
-3.577882e-03,
-6.535590e-02,
-3.927452e-02,
-1.857142e-02,
-2.248756e-02,
2.627350e-02,
8.429140e-02,
2.136979e-03,
3.366424e-02,
3.276369e-02,
6.950836e-02,
6.320052e-02,
2.667214e-02,
2.425706e-02,
-2.949204e-02,
2.605737e-02,
4.354857e-02,
3.811772e-02,
7.658684e-02,
5.588416e-02,
1.705576e-02,
1.137938e-02,
-1.054281e-02,
-4.358220e-03,
-3.676161e-02,
-8.304405e-02,
-8.153346e-02,
-4.696192e-02,
-4.375144e-02,
3.593197e-03,
5.363645e-02,
3.760049e-02,
-4.561468e-02,
-3.929110e-02,
-9.468411e-02,
-3.633441e-02,
-1.236976e-02,
5.499304e-02,
4.210901e-02,
5.234065e-02,
-1.433184e-02,
-6.822483e-02,
-1.527924e-02,
-2.494687e-02,
-5.362797e-02,
-8.889748e-02,
-7.440653e-03,
2.038345e-02,
9.145242e-02,
1.052382e-01,
7.145803e-02,
7.120845e-02,
5.108354e-02,
-1.552150e-02,
-3.225452e-02,
-8.225557e-02,
-4.319472e-02,
-3.715350e-02,
1.451299e-02,
2.824312e-02,
9.876823e-02,
1.374947e-01,
1.005615e-01,
7.943483e-02,
2.890554e-02,
6.750618e-02,
-4.338707e-02,
-8.817312e-03,
5.239263e-04,
-9.363208e-03,
-1.613469e-02,
-6.032472e-03,
5.668842e-02,
6.868030e-02,
2.357011e-02,
6.046425e-02,
4.747545e-02,
-3.572406e-03,
-4.705312e-02,
5.412487e-02,
2.622185e-02,
1.510449e-02,
1.722661e-03,
3.346600e-02,
4.167170e-02,
3.303795e-02,
4.268165e-02,
2.930826e-02,
1.278622e-02,
3.335181e-02,
-8.801525e-04,
-2.938231e-02,
1.605038e-02,
-5.328819e-04,
5.430848e-02,
5.141456e-02,
3.547785e-02,
-1.416132e-02,
7.846534e-03,
-2.630796e-02,
-1.211419e-01,
-8.590227e-02,
-1.167152e-01,
-9.235913e-03,
4.645726e-02,
2.016865e-02,
3.782009e-02,
6.500151e-02,
1.209533e-02,
-3.468445e-02,
-9.955609e-02,
-1.858758e-01,
-1.447544e-01,
-6.691425e-02,
-4.010068e-02,
-2.751127e-02,
8.828211e-03,
5.894876e-02,
1.063806e-01,
1.173997e-01,
3.497083e-02,
-4.451335e-02,
-1.223361e-01,
-1.848238e-01,
-1.560681e-01,
-6.665147e-02,
-5.327939e-02,
2.830749e-02,
-8.928237e-03,
1.470794e-02,
9.483887e-02,
6.113616e-02,
3.202866e-02,
