w_t _weights_conv3[3*3*5*5] = {
-1.817624e-01,
-3.203835e-02,
1.003309e-01,
1.234744e-01,
3.521144e-02,
1.570190e-01,
1.523905e-01,
2.438866e-01,
1.177301e-01,
2.976831e-01,
1.955144e-01,
1.044715e-03,
4.329009e-01,
2.075532e-01,
-1.243257e-02,
4.945377e-01,
2.074589e-01,
1.498150e-01,
1.815885e-02,
-2.423145e-02,
1.686200e-02,
-6.417418e-02,
-8.344362e-03,
3.583505e-02,
5.046193e-03,
9.268542e-02,
2.251531e-01,
8.170664e-02,
-6.247237e-02,
7.259390e-02,
-1.451572e-01,
-2.606783e-01,
-3.740927e-02,
-2.701193e-01,
-1.457826e-01,
-1.905220e-02,
-1.604178e-01,
6.125067e-02,
1.626902e-01,
4.935078e-02,
-7.981559e-02,
2.274439e-02,
-9.185512e-02,
-1.494941e-01,
-5.763759e-02,
1.029053e-01,
-1.205245e-01,
4.234915e-02,
-1.523461e-01,
2.233963e-02,
-6.412967e-02,
-1.221583e-01,
-7.765075e-02,
-4.361667e-02,
-1.215675e-01,
5.012682e-02,
-2.870676e-02,
9.488194e-02,
3.916804e-02,
7.239990e-02,
-7.464059e-02,
-5.679606e-02,
8.754257e-02,
-1.319784e-01,
-1.216607e-01,
-1.268531e-01,
3.746734e-02,
6.111519e-02,
9.817769e-02,
4.836475e-02,
-2.006969e-02,
2.304056e-02,
1.295324e-01,
-1.382405e-01,
6.509170e-02,
1.995504e-02,
-2.617676e-02,
2.362273e-02,
2.633813e-02,
4.689676e-02,
-2.135897e-02,
-1.609538e-01,
7.491596e-02,
-2.262233e-03,
-1.194427e-01,
2.513514e-02,
-1.977613e-02,
-1.014949e-01,
1.062300e-01,
-1.309156e-01,
9.719109e-02,
-4.219916e-02,
2.127191e-02,
2.135946e-01,
1.076115e-02,
2.357939e-01,
-1.236869e-01,
1.051565e-01,
1.605072e-01,
-4.739227e-02,
3.218837e-02,
-4.370891e-01,
1.484108e-01,
2.746689e-01,
7.663881e-03,
2.841808e-01,
1.754628e-01,
1.581654e-01,
-1.428838e-01,
3.858243e-02,
-1.586616e-02,
-1.098843e-02,
7.845840e-02,
2.192061e-01,
-4.616154e-02,
1.693302e-01,
2.394278e-01,
-2.310245e-02,
-4.544548e-02,
4.036047e-02,
-8.616111e-02,
7.123951e-02,
1.285696e-01,
5.268288e-02,
6.223694e-03,
2.458424e-01,
1.377658e-01,
-2.771905e-01,
-1.926105e-01,
-1.451579e-01,
-1.095018e-01,
1.295608e-01,
-3.877838e-02,
1.782118e-01,
3.460321e-01,
2.651501e-02,
5.625009e-02,
1.955772e-01,
1.413179e-01,
2.314071e-01,
2.050437e-01,
-6.877196e-02,
-7.972941e-02,
-1.515630e-01,
-6.490577e-02,
-1.899984e-01,
-9.615295e-02,
-2.268619e-02,
-4.512661e-02,
-1.838629e-01,
-5.452681e-02,
-4.517439e-02,
-1.699511e-01,
1.376078e-02,
2.042796e-01,
1.187616e-01,
-7.525466e-02,
2.123736e-01,
-3.445851e-03,
-5.557101e-02,
-3.035022e-02,
-7.650740e-02,
-1.123953e-02,
1.730623e-01,
2.427391e-02,
1.945335e-01,
1.160271e-01,
-8.039623e-02,
1.578416e-01,
2.575237e-03,
-4.532272e-02,
-4.841670e-02,
-9.644171e-02,
-1.001646e-01,
-2.366710e-02,
2.449708e-01,
5.783540e-03,
1.318880e-01,
1.900821e-01,
1.178273e-01,
1.430541e-01,
1.102849e-01,
2.535118e-02,
1.388830e-01,
2.912796e-01,
1.882235e-01,
-2.891845e-02,
2.535560e-01,
1.190287e-01,
1.298460e-01,
-7.633603e-02,
1.773410e-01,
5.028027e-02,
3.323211e-01,
2.288753e-01,
-1.463604e-01,
7.428828e-03,
-2.034060e-01,
1.324801e-01,
7.032197e-03,
2.035296e-02,
2.002453e-01,
2.711444e-02,
-1.303583e-01,
7.804996e-02,
1.229936e-01,
-8.862115e-02,
9.638711e-02,
5.320520e-02,
-1.933215e-01,
-4.523831e-02,
5.768822e-03,
-2.335101e-01,
1.524782e-01,
3.495165e-02,
3.884211e-02,
-5.766833e-02,
8.847880e-02,
3.581815e-02,
-1.412486e-01,
-1.231696e-02,
3.489474e-02,
9.808723e-02,
2.481020e-02,
9.008563e-02,
};
