w_t _weights_conv2[3*3*5*5] = {
-4.582449e-02,
1.322542e-01,
2.189917e-02,
-3.694552e-02,
5.397713e-02,
-8.205379e-02,
8.442551e-02,
-8.079164e-02,
-1.003351e-01,
9.723972e-02,
-1.902056e-01,
-3.004597e-01,
2.714826e-01,
2.450593e-01,
-2.136707e-01,
2.474921e-01,
1.269221e-01,
1.259959e-01,
2.326927e-01,
1.376054e-01,
-2.565503e-01,
2.560493e-01,
1.772943e-01,
-3.174590e-01,
2.257978e-01,
2.667252e-01,
-3.833530e-03,
1.535910e-03,
1.968893e-01,
1.831666e-01,
-3.548344e-01,
1.321393e-02,
2.824918e-01,
-4.143622e-01,
-1.485561e-01,
2.099362e-01,
8.989042e-02,
1.610561e-01,
-9.281548e-02,
-1.270749e-02,
2.769563e-01,
3.573394e-01,
6.006946e-03,
1.297404e-01,
3.150142e-01,
1.074559e-01,
1.901035e-01,
4.550614e-02,
1.351468e-01,
2.776866e-03,
-8.702060e-02,
1.551919e-02,
-1.181551e-01,
-2.022144e-02,
4.986285e-02,
-1.551687e-01,
-2.325113e-01,
-8.075657e-02,
-1.859389e-01,
-6.345798e-02,
-2.921654e-02,
-6.124853e-02,
3.293486e-01,
-5.129083e-02,
-7.402579e-02,
1.420191e-02,
3.539223e-03,
-1.195709e-01,
1.309985e-01,
4.578921e-02,
-9.367324e-02,
4.327289e-02,
-1.649545e-01,
3.753706e-02,
1.894655e-01,
9.986781e-02,
2.063429e-01,
-3.246071e-02,
3.106454e-02,
9.831502e-02,
-3.106075e-01,
8.294085e-02,
-2.012594e-01,
-6.991635e-02,
-6.016393e-02,
-2.048319e-01,
-3.028985e-02,
-8.928074e-02,
-6.373956e-02,
4.223315e-01,
1.781538e-01,
2.027011e-01,
4.981435e-03,
1.794942e-02,
8.190126e-02,
8.363108e-02,
-5.531142e-02,
-5.095364e-02,
9.182769e-02,
1.814673e-01,
1.160340e-01,
3.899577e-02,
-6.853042e-02,
1.224305e-01,
7.896438e-03,
3.838639e-02,
-1.111249e-02,
1.317874e-01,
-6.938110e-02,
-7.994585e-02,
-1.504573e-01,
2.397085e-01,
2.189135e-01,
1.146881e-02,
-1.592577e-01,
-1.079717e-01,
1.531312e-01,
2.538372e-01,
2.483615e-01,
1.645967e-01,
-1.464684e-01,
7.028193e-03,
1.136869e-01,
4.624612e-02,
-1.970004e-02,
6.706269e-02,
2.174195e-01,
6.342368e-01,
5.996933e-01,
-3.839102e-01,
-2.556913e-01,
-3.966826e-02,
-2.665708e-02,
-1.435622e-02,
2.218107e-01,
1.167893e-01,
1.106874e-01,
1.763329e-01,
-2.614396e-01,
-2.393335e-01,
-2.408001e-01,
-2.429466e-01,
-2.004856e-01,
-1.475631e-01,
-5.634113e-02,
4.949973e-02,
6.204493e-03,
2.192772e-02,
3.641335e-02,
-4.231291e-02,
2.105799e-01,
-3.204858e-02,
2.471047e-03,
1.504952e-01,
2.488201e-01,
2.791456e-01,
1.342929e-01,
1.517493e-01,
-2.532543e-02,
-1.452184e-01,
-1.634929e-01,
-2.613575e-01,
-6.556737e-02,
-1.639217e-02,
-1.522613e-02,
-3.483135e-01,
-5.603524e-02,
-2.612165e-01,
-2.142866e-01,
-1.328807e-01,
-4.079145e-02,
-1.672531e-01,
-1.206100e-01,
-9.503977e-02,
-1.326630e-01,
-3.325833e-01,
-2.931313e-01,
1.518163e-01,
2.198546e-01,
1.221297e-01,
-1.690931e-01,
1.096226e-01,
2.264173e-01,
-1.934774e-02,
9.524756e-02,
-8.052260e-03,
1.406025e-01,
-6.966993e-02,
2.022044e-02,
4.069973e-01,
4.661804e-02,
3.063830e-03,
1.625355e-01,
-1.961892e-01,
-8.461007e-02,
-1.475046e-01,
-1.272133e-01,
-3.113017e-02,
9.536425e-02,
-1.298333e-01,
-3.246671e-02,
-3.328303e-01,
-2.307200e-01,
6.848576e-03,
-3.488772e-02,
1.824804e-01,
2.217385e-01,
-1.611041e-01,
-2.591822e-01,
5.188435e-02,
4.679164e-02,
1.863059e-01,
2.601205e-01,
3.061095e-01,
1.406973e-01,
-1.852899e-02,
1.961255e-01,
1.857987e-01,
1.013262e-01,
1.713983e-01,
-9.257121e-02,
-2.046287e-01,
2.764871e-02,
-1.313328e-01,
-1.610806e-02,
};
